<?xml version="1.0"?>
<opencv_storage>
<cascade>
  <stageType>BOOST</stageType>
  <featureType>LBP</featureType>
  <height>60</height>
  <width>80</width>
  <stageParams>
    <boostType>GAB</boostType>
    <minHitRate>9.9900001287460327e-01</minHitRate>
    <maxFalseAlarm>5.0000000000000000e-01</maxFalseAlarm>
    <weightTrimRate>9.4999999999999996e-01</weightTrimRate>
    <maxDepth>1</maxDepth>
    <maxWeakCount>100</maxWeakCount></stageParams>
  <featureParams>
    <maxCatCount>256</maxCatCount>
    <featSize>1</featSize></featureParams>
  <stageNum>40</stageNum>
  <stages>
    <!-- stage 0 -->
    <_>
      <maxWeakCount>4</maxWeakCount>
      <stageThreshold>-1.2420471906661987e+00</stageThreshold>
      <weakClassifiers>
        <_>
          <internalNodes>
            0 -1 86 -742330164 -250076848 285262028 -654208960
            -1853314632 -735576056 -1442781048 -1064304512</internalNodes>
          <leafValues>
            -8.4761905670166016e-01 6.9082969427108765e-01</leafValues></_>
        <_>
          <internalNodes>
            0 -1 24 1373000063 1431769432 -1862188975 -15527464
            1225328715 2030698496 -1727653717 923926608</internalNodes>
          <leafValues>
            -7.5722509622573853e-01 5.7068824768066406e-01</leafValues></_>
        <_>
          <internalNodes>
            0 -1 293 -1315242243 -774729280 -536837675 995349579
            537168265 -1340014581 -1945581363 253696185</internalNodes>
          <leafValues>
            -6.2307876348495483e-01 6.5744781494140625e-01</leafValues></_>
        <_>
          <internalNodes>
            0 -1 232 -116335152 2109077172 -1107509391 -12713995
            2012602344 -1078526922 -567226882 -1097595116</internalNodes>
          <leafValues>
            -5.5257308483123779e-01 6.5581691265106201e-01</leafValues></_></weakClassifiers></_>
    <!-- stage 1 -->
    <_>
      <maxWeakCount>5</maxWeakCount>
      <stageThreshold>-1.3416972160339355e+00</stageThreshold>
      <weakClassifiers>
        <_>
          <internalNodes>
            0 -1 31 795836287 1476344807 -1275084806 828993523 603788287
            871858171 905794043 867115391</internalNodes>
          <leafValues>
            -4.7826087474822998e-01 7.4560499191284180e-01</leafValues></_>
        <_>
          <internalNodes>
            0 -1 52 -566437 -10064077 -16814221 2121956982 -1350670760
            2121752437 2121340737 2001952275</internalNodes>
          <leafValues>
            -5.0781399011611938e-01 6.0354727506637573e-01</leafValues></_>
        <_>
          <internalNodes>
            0 -1 252 -113133891 -1996259309 69779 -713957372 -2121678672
            -1987411968 76392685 147785896</internalNodes>
          <leafValues>
            -5.9882771968841553e-01 5.0582778453826904e-01</leafValues></_>
        <_>
          <internalNodes>
            0 -1 183 -143747436 -151556369 -1260749752 1945460209
            762365120 -159836442 2146746056 -389853477</internalNodes>
          <leafValues>
            -4.9007374048233032e-01 5.5962461233139038e-01</leafValues></_>
        <_>
          <internalNodes>
            0 -1 343 271061871 -1427177730 2147413437 -1679950611
            -1650927943 -1381171329 -134283817 -1073842756</internalNodes>
          <leafValues>
            -4.9058672785758972e-01 5.9466618299484253e-01</leafValues></_></weakClassifiers></_>
    <!-- stage 2 -->
    <_>
      <maxWeakCount>7</maxWeakCount>
      <stageThreshold>-6.2081611156463623e-01</stageThreshold>
      <weakClassifiers>
        <_>
          <internalNodes>
            0 -1 21 -294913 2147163963 -360462 2134517754 -33161
            1068973882 2147443666 858988562</internalNodes>
          <leafValues>
            -4.9899798631668091e-01 6.4165103435516357e-01</leafValues></_>
        <_>
          <internalNodes>
            0 -1 39 -196447546 -179568235 -1828650285 -1083075689
            -385810427 -1606348541 1135510038 -884596381</internalNodes>
          <leafValues>
            -4.9156466126441956e-01 5.2811962366104126e-01</leafValues></_>
        <_>
          <internalNodes>
            0 -1 277 271444945 -1912303601 -520011771 -1459231997
            -1606260484 -1568669566 692306153 245233835</internalNodes>
          <leafValues>
            -6.0344034433364868e-01 4.8928946256637573e-01</leafValues></_>
        <_>
          <internalNodes>
            0 -1 319 -1561712480 -67178756 2130458101 -613011480
            1048223722 -571574274 -1243693090 -38122320</internalNodes>
          <leafValues>
            -4.5403376221656799e-01 6.1191278696060181e-01</leafValues></_>
        <_>
          <internalNodes>
            0 -1 40 -159731339 -4118 -151159057 -807977118 642671701
            -279543938 -824760962 -80253633</internalNodes>
          <leafValues>
            -4.9400308728218079e-01 5.6500792503356934e-01</leafValues></_>
        <_>
          <internalNodes>
            0 -1 14 -775786098 -2096097911 -788524780 -141933686
            1359904968 -1727524720 1645818048 2078437586</internalNodes>
          <leafValues>
            -5.9601151943206787e-01 4.8504197597503662e-01</leafValues></_>
        <_>
          <internalNodes>
            0 -1 314 -666537864 118854677 37257 -805240677 203688194
            -1875375999 -96375670 536901219</internalNodes>
          <leafValues>
            -6.2740659713745117e-01 4.4678720831871033e-01</leafValues></_></weakClassifiers></_>
    <!-- stage 3 -->
    <_>
      <maxWeakCount>9</maxWeakCount>
      <stageThreshold>-5.9137588739395142e-01</stageThreshold>
      <weakClassifiers>
        <_>
          <internalNodes>
            0 -1 67 262677951 1072660411 1843331069 1071786594 662575099
            938342383 1073576700 199717759</internalNodes>
          <leafValues>
            -3.8989168405532837e-01 6.4391690492630005e-01</leafValues></_>
        <_>
          <internalNodes>
            0 -1 132 -750717048 -196869244 17827976 -107724800 140744760
            -1202050911 -1704409032 -901464064</internalNodes>
          <leafValues>
            -7.2862792015075684e-01 3.8560035824775696e-01</leafValues></_>
        <_>
          <internalNodes>
            0 -1 321 -2009743875 -1465668040 1073738941 527400159
            -1124077608 -1934426126 1324717868 -1985112932</internalNodes>
          <leafValues>
            -4.3601974844932556e-01 6.1296826601028442e-01</leafValues></_>
        <_>
          <internalNodes>
            0 -1 83 294660951 -749501923 360718483 1426131592 1254687556
            -93188096 699091663 -16029070</internalNodes>
          <leafValues>
            -5.2323251962661743e-01 5.3337574005126953e-01</leafValues></_>
        <_>
          <internalNodes>
            0 -1 364 -1742757285 -1542282873 64045143 -2046787497
            -792475471 -1475313400 -1607612348 -1914975769</internalNodes>
          <leafValues>
            -4.8913124203681946e-01 5.8513283729553223e-01</leafValues></_>
        <_>
          <internalNodes>
            0 -1 209 -1807437033 -1877630927 269488712 300253262 1606872
            -2011627336 -1196261235 140238989</internalNodes>
          <leafValues>
            -6.7614775896072388e-01 4.1657838225364685e-01</leafValues></_>
        <_>
          <internalNodes>
            0 -1 219 -334598992 2079481712 2130607733 318438654
            -1363345860 -17481753 771209164 -1280438400</internalNodes>
          <leafValues>
            -5.2776825428009033e-01 5.8129167556762695e-01</leafValues></_>
        <_>
          <internalNodes>
            0 -1 140 282997616 349307172 17104981 290922788 -2094111676
            -1087748052 -276419695 -376812783</internalNodes>
          <leafValues>
            -6.5073162317276001e-01 4.4920268654823303e-01</leafValues></_>
        <_>
          <internalNodes>
            0 -1 262 -1827776612 -604910088 -537919553 -537266435
            -543293762 -563315708 1291611274 -20639910</internalNodes>
          <leafValues>
            -4.5957615971565247e-01 6.5633118152618408e-01</leafValues></_></weakClassifiers></_>
    <!-- stage 4 -->
    <_>
      <maxWeakCount>7</maxWeakCount>
      <stageThreshold>-5.3493970632553101e-01</stageThreshold>
      <weakClassifiers>
        <_>
          <internalNodes>
            0 -1 71 -60495138 -1874698080 8912911 -268009338 1082131082
            -258817884 -798916438 536903704</internalNodes>
          <leafValues>
            -6.8770766258239746e-01 5.0791138410568237e-01</leafValues></_>
        <_>
          <internalNodes>
            0 -1 54 1344019934 -587201722 184634433 -149815202
            -805256767 -1601694681 671093231 375063438</internalNodes>
          <leafValues>
            -5.4380995035171509e-01 4.5570728182792664e-01</leafValues></_>
        <_>
          <internalNodes>
            0 -1 325 -1778199424 -30638464 -688243725 -228836314
            -1628842792 653524852 -1925136454 -1551237045</internalNodes>
          <leafValues>
            -3.6018145084381104e-01 6.8940681219100952e-01</leafValues></_>
        <_>
          <internalNodes>
            0 -1 335 -505570563 -1073684299 293666817 1737981954
            -507494101 -1073082367 778714 149398691</internalNodes>
          <leafValues>
            -4.6306210756301880e-01 5.5327600240707397e-01</leafValues></_>
        <_>
          <internalNodes>
            0 -1 26 -603425 -293601481 -82330 1868822399 -42250234
            -8954023 -723110 -29274358</internalNodes>
          <leafValues>
            -5.0566446781158447e-01 5.4956096410751343e-01</leafValues></_>
        <_>
          <internalNodes>
            0 -1 216 -1232465136 1434418754 2139008487 998473509
            -555839542 -2063632616 1953783640 255470592</internalNodes>
          <leafValues>
            -5.0399088859558105e-01 5.5168086290359497e-01</leafValues></_>
        <_>
          <internalNodes>
            0 -1 193 839651392 1352663056 276824209 -754872304
            -1739554765 536879368 -1744797560 -1148055364</internalNodes>
          <leafValues>
            -5.4160404205322266e-01 5.2003890275955200e-01</leafValues></_></weakClassifiers></_>
    <!-- stage 5 -->
    <_>
      <maxWeakCount>10</maxWeakCount>
      <stageThreshold>-7.8644180297851562e-01</stageThreshold>
      <weakClassifiers>
        <_>
          <internalNodes>
            0 -1 23 -8957665 -44015957 -1078137091 2138221330 2138595852
            1982881649 -548245738 2130861635</internalNodes>
          <leafValues>
            -3.6082473397254944e-01 5.6481480598449707e-01</leafValues></_>
        <_>
          <internalNodes>
            0 -1 372 -1468661897 581214343 -1342275951 129535157
            788004598 -2131759554 356080317 -1547702279</internalNodes>
          <leafValues>
            -3.5953608155250549e-01 5.2665269374847412e-01</leafValues></_>
        <_>
          <internalNodes>
            0 -1 259 311563192 -1848114732 -1878716207 385912977
            -2134842445 -905838456 -1874296432 -1474682820</internalNodes>
          <leafValues>
            -4.2346361279487610e-01 4.8418191075325012e-01</leafValues></_>
        <_>
          <internalNodes>
            0 -1 7 -988552558 1147498560 285298737 -788414427 1094955209
            -1843789695 156418245 930547060</internalNodes>
          <leafValues>
            -5.0480443239212036e-01 4.2432948946952820e-01</leafValues></_>
        <_>
          <internalNodes>
            0 -1 207 -1857777328 -749600572 537920991 999526546
            977934520 -401728886 1619208667 825776576</internalNodes>
          <leafValues>
            -5.2893352508544922e-01 4.0809431672096252e-01</leafValues></_>
        <_>
          <internalNodes>
            0 -1 284 1375853392 -218032318 1627427221 1459859841
            -1862160216 134318080 71303347 26344581</internalNodes>
          <leafValues>
            -4.9684438109397888e-01 4.6359741687774658e-01</leafValues></_>
        <_>
          <internalNodes>
            0 -1 313 -1342059627 -2097643374 -645589900 695439405
            -1878654808 -335368168 581806 -2142771067</internalNodes>
          <leafValues>
            -4.9968528747558594e-01 4.8539599776268005e-01</leafValues></_>
        <_>
          <internalNodes>
            0 -1 212 -902775200 468573944 -17240543 -1110806985
            339542764 1065180542 1573241998 -452239489</internalNodes>
          <leafValues>
            -4.3149191141128540e-01 5.4663175344467163e-01</leafValues></_>
        <_>
          <internalNodes>
            0 -1 139 -736736146 -788496320 -2147418089 -216972160
            1241596432 -1742012288 537665698 -492666158</internalNodes>
          <leafValues>
            -4.2897257208824158e-01 5.7030296325683594e-01</leafValues></_>
        <_>
          <internalNodes>
            0 -1 242 -94773607 1946119980 -453054631 -89195753 796244936
            -668533306 1851152382 -1173599983</internalNodes>
          <leafValues>
            -4.0049308538436890e-01 6.2360328435897827e-01</leafValues></_></weakClassifiers></_>
    <!-- stage 6 -->
    <_>
      <maxWeakCount>8</maxWeakCount>
      <stageThreshold>-9.4322538375854492e-01</stageThreshold>
      <weakClassifiers>
        <_>
          <internalNodes>
            0 -1 188 549652263 -100720899 1056907263 993738751
            1052655359 2075361279 787954365 984758522</internalNodes>
          <leafValues>
            -3.7313431501388550e-01 6.1710399389266968e-01</leafValues></_>
        <_>
          <internalNodes>
            0 -1 124 -1627581057 -75698371 -1498977480 -1073807361
            266537047 -948437001 -377596057 -268788229</internalNodes>
          <leafValues>
            -3.5991021990776062e-01 5.6874305009841919e-01</leafValues></_>
        <_>
          <internalNodes>
            0 -1 358 -1084116325 -2068906948 -805310537 1082896638
            -587745553 -1526792201 -1644716549 166823101</internalNodes>
          <leafValues>
            -4.6478453278541565e-01 4.8390150070190430e-01</leafValues></_>
        <_>
          <internalNodes>
            0 -1 85 -1760628538 -1694232564 99079 -787901537 -1737850482
            -1962407891 -1978812178 -2080048628</internalNodes>
          <leafValues>
            -5.6260389089584351e-01 4.2518770694732666e-01</leafValues></_>
        <_>
          <internalNodes>
            0 -1 162 234902909 -482197325 151031835 -229535013
            1619008061 -2136336381 -762553784 -1976913768</internalNodes>
          <leafValues>
            -5.3266185522079468e-01 4.8324522376060486e-01</leafValues></_>
        <_>
          <internalNodes>
            0 -1 16 -750595697 -1979612005 1124679699 -2030026542
            -2126345588 1346437268 595657221 1359209319</internalNodes>
          <leafValues>
            -5.1207876205444336e-01 5.2721226215362549e-01</leafValues></_>
        <_>
          <internalNodes>
            0 -1 221 -1714323086 525735168 285213057 1805355072
            830507936 959971456 1904771624 830095499</internalNodes>
          <leafValues>
            -5.9772348403930664e-01 4.6039727330207825e-01</leafValues></_>
        <_>
          <internalNodes>
            0 -1 231 353469317 237117826 -2130702059 461586452 176482491
            -2009489280 939753693 233524138</internalNodes>
          <leafValues>
            -5.6913918256759644e-01 4.8164168000221252e-01</leafValues></_></weakClassifiers></_>
    <!-- stage 7 -->
    <_>
      <maxWeakCount>9</maxWeakCount>
      <stageThreshold>-7.5581276416778564e-01</stageThreshold>
      <weakClassifiers>
        <_>
          <internalNodes>
            0 -1 326 -1192706057 82456296 -1375749900 770438783
            268368123 -1914331650 754480381 149940635</internalNodes>
          <leafValues>
            -3.4393638372421265e-01 5.7250469923019409e-01</leafValues></_>
        <_>
          <internalNodes>
            0 -1 152 2710677 -69218433 -2022179137 1945829364 1694463080
            -67141763 -948537713 -1172502944</internalNodes>
          <leafValues>
            -3.6940941214561462e-01 5.4749619960784912e-01</leafValues></_>
        <_>
          <internalNodes>
            0 -1 247 -1265610604 -2147344740 41943197 -1120397197
            -1324826045 -661060480 -1046989150 -1122891384</internalNodes>
          <leafValues>
            -4.7459778189659119e-01 4.4049784541130066e-01</leafValues></_>
        <_>
          <internalNodes>
            0 -1 121 -750062884 1291867018 -1728052208 -1498496366
            1212589212 -1038956127 -461324036 989008058</internalNodes>
          <leafValues>
            -5.7846367359161377e-01 3.7527897953987122e-01</leafValues></_>
        <_>
          <internalNodes>
            0 -1 148 1880381847 2041381031 -1811360302 -257342333
            1619873796 1011286024 -655883603 -1823993316</internalNodes>
          <leafValues>
            -5.4938453435897827e-01 4.3898880481719971e-01</leafValues></_>
        <_>
          <internalNodes>
            0 -1 351 -771492915 1107984 -1860173816 -2109041287
            1073815738 -1987665407 -2139042620 80996495</internalNodes>
          <leafValues>
            -5.5092531442642212e-01 4.5935174822807312e-01</leafValues></_>
        <_>
          <internalNodes>
            0 -1 246 -97462156 254565652 -683 425424881 1060587196
            2133032826 1853784043 -1993900965</internalNodes>
          <leafValues>
            -4.6387949585914612e-01 5.5842727422714233e-01</leafValues></_>
        <_>
          <internalNodes>
            0 -1 34 -791325041 -783193407 268456104 -347961014
            1218398232 -886702046 -427373552 1763050134</internalNodes>
          <leafValues>
            -6.2596142292022705e-01 4.3152561783790588e-01</leafValues></_>
        <_>
          <internalNodes>
            0 -1 2 -1839688835 306438164 1048923 -1320615794 -2147303239
            -760700887 -1525726071 31795365</internalNodes>
          <leafValues>
            -5.7000386714935303e-01 4.6901229023933411e-01</leafValues></_></weakClassifiers></_>
    <!-- stage 8 -->
    <_>
      <maxWeakCount>10</maxWeakCount>
      <stageThreshold>-7.3149907588958740e-01</stageThreshold>
      <weakClassifiers>
        <_>
          <internalNodes>
            0 -1 13 -17368069 -25497922 -8618255 -152019120 -1753448613
            1425047544 -26050693 2101352227</internalNodes>
          <leafValues>
            -3.5918366909027100e-01 5.6837207078933716e-01</leafValues></_>
        <_>
          <internalNodes>
            0 -1 164 1348691015 2137519099 -8837 -655950 1601647953
            -1233192587 -1753219873 -2128914</internalNodes>
          <leafValues>
            -2.7046754956245422e-01 7.1096593141555786e-01</leafValues></_>
        <_>
          <internalNodes>
            0 -1 285 -1593655893 46186624 -1072590826 -1996385535
            -1966700333 -1714366463 -1877752600 138410265</internalNodes>
          <leafValues>
            -5.8538484573364258e-01 3.9627608656883240e-01</leafValues></_>
        <_>
          <internalNodes>
            0 -1 60 -755375321 -771653359 -2080253218 -266091646
            855917121 1785235473 -517120489 -1855468554</internalNodes>
          <leafValues>
            -4.6518617868423462e-01 4.5310518145561218e-01</leafValues></_>
        <_>
          <internalNodes>
            0 -1 113 -2129096970 -1828388682 4117 1355024709 -762150774
            1015185544 -1979580402 -1706912869</internalNodes>
          <leafValues>
            -4.4230389595031738e-01 5.1035696268081665e-01</leafValues></_>
        <_>
          <internalNodes>
            0 -1 8 -1499206229 -370495501 -1208289681 -168051075
            74835708 -2055406083 972922483 -1525422108</internalNodes>
          <leafValues>
            -4.4686567783355713e-01 5.2978330850601196e-01</leafValues></_>
        <_>
          <internalNodes>
            0 -1 125 336343931 -1721888762 -2004662923 88378128
            -1589489376 -1471512448 -125826921 -1980013759</internalNodes>
          <leafValues>
            -5.1816874742507935e-01 4.6602150797843933e-01</leafValues></_>
        <_>
          <internalNodes>
            0 -1 323 -1856392744 545950742 67142481 -1933205435
            546669820 453542152 335696019 -2008102876</internalNodes>
          <leafValues>
            -5.2799105644226074e-01 4.7956511378288269e-01</leafValues></_>
        <_>
          <internalNodes>
            0 -1 127 -50573611 1541824245 -263297 -100761742 -134792360
            -1619034244 -1090585650 -237301956</internalNodes>
          <leafValues>
            -4.5377501845359802e-01 5.9728139638900757e-01</leafValues></_>
        <_>
          <internalNodes>
            0 -1 120 -55838984 -1364165000 -1091817671 1999257379
            -1073873262 -1084293323 2088552187 -1133843072</internalNodes>
          <leafValues>
            -4.9723660945892334e-01 5.2918672561645508e-01</leafValues></_></weakClassifiers></_>
    <!-- stage 9 -->
    <_>
      <maxWeakCount>9</maxWeakCount>
      <stageThreshold>-5.2641093730926514e-01</stageThreshold>
      <weakClassifiers>
        <_>
          <internalNodes>
            0 -1 27 2130654453 -119050 2146893803 2108876666 2147419484
            1599565654 -9480706 2069051230</internalNodes>
          <leafValues>
            -3.6382535099983215e-01 5.6273061037063599e-01</leafValues></_>
        <_>
          <internalNodes>
            0 -1 41 -38406937 2060943291 2130635443 36990330 -1234100368
            -429236361 -1099479455 -142106777</internalNodes>
          <leafValues>
            -3.5528200864791870e-01 5.6037187576293945e-01</leafValues></_>
        <_>
          <internalNodes>
            0 -1 305 -778675742 138598466 -1677634280 -2057502463
            -1861762121 -1570668472 8439937 -2001946552</internalNodes>
          <leafValues>
            -4.9443572759628296e-01 4.2242199182510376e-01</leafValues></_>
        <_>
          <internalNodes>
            0 -1 368 -1733654051 -1532830164 1723330527 -1758610400
            2100682395 -2116059308 -1342704136 -1749476880</internalNodes>
          <leafValues>
            -3.8258209824562073e-01 5.5798608064651489e-01</leafValues></_>
        <_>
          <internalNodes>
            0 -1 282 -1050150892 -771226874 -2004844480 -1056899054
            -264207448 -744357312 -2100199208 276950018</internalNodes>
          <leafValues>
            -5.8485889434814453e-01 3.8521519303321838e-01</leafValues></_>
        <_>
          <internalNodes>
            0 -1 25 -515390985 -1072250270 8770 -738033646 1900120097
            277350402 1233244178 643240503</internalNodes>
          <leafValues>
            -5.8203792572021484e-01 4.0510463714599609e-01</leafValues></_>
        <_>
          <internalNodes>
            0 -1 237 -604103363 -402686321 -16781709 -68649732
            -1082884108 -25198721 2143239674 -1162735120</internalNodes>
          <leafValues>
            -4.3597999215126038e-01 5.4388558864593506e-01</leafValues></_>
        <_>
          <internalNodes>
            0 -1 106 -1006483840 -1211590526 1032 -1441660856 806973657
            1493827592 506003528 1651737241</internalNodes>
          <leafValues>
            -6.5348923206329346e-01 3.7953069806098938e-01</leafValues></_>
        <_>
          <internalNodes>
            0 -1 346 -117052987 -1073397487 268455954 -1518120693
            -653663831 134480016 -2105349728 -923560105</internalNodes>
          <leafValues>
            -4.3776714801788330e-01 5.6381607055664062e-01</leafValues></_></weakClassifiers></_>
    <!-- stage 10 -->
    <_>
      <maxWeakCount>9</maxWeakCount>
      <stageThreshold>-5.8078444004058838e-01</stageThreshold>
      <weakClassifiers>
        <_>
          <internalNodes>
            0 -1 90 1858028788 1072921459 -67141773 -650463 1869681737
            -583630977 1426009820 2133998430</internalNodes>
          <leafValues>
            -2.9900988936424255e-01 5.5283015966415405e-01</leafValues></_>
        <_>
          <internalNodes>
            0 -1 352 -1834489899 10518528 -788315388 -1055483741
            -398101855 -2088730619 589953 76390472</internalNodes>
          <leafValues>
            -5.3580272197723389e-01 3.5974371433258057e-01</leafValues></_>
        <_>
          <internalNodes>
            0 -1 318 -1108718159 -101810580 -25241899 -168081479
            -290662991 -135809025 -122511445 -1112404520</internalNodes>
          <leafValues>
            -3.6382248997688293e-01 5.5884557962417603e-01</leafValues></_>
        <_>
          <internalNodes>
            0 -1 175 -805011312 -237862647 -1466953389 -670394877
            1218237879 -81166199 -2004203382 -2007481848</internalNodes>
          <leafValues>
            -4.3499016761779785e-01 4.6804794669151306e-01</leafValues></_>
        <_>
          <internalNodes>
            0 -1 144 957627859 1467025468 33709396 234887296 1209276491
            -125288432 1619547272 -79626167</internalNodes>
          <leafValues>
            -5.0010263919830322e-01 4.2912450432777405e-01</leafValues></_>
        <_>
          <internalNodes>
            0 -1 20 -1802259803 84218122 -2122290872 -286129588
            -1580809213 -2113795508 -2100866176 -747808217</internalNodes>
          <leafValues>
            -4.6012756228446960e-01 4.7471985220909119e-01</leafValues></_>
        <_>
          <internalNodes>
            0 -1 223 337278100 1082229601 16941339 2046838741
            -1174353224 -1977579518 -997637672 -1623582684</internalNodes>
          <leafValues>
            -5.2995705604553223e-01 4.2377156019210815e-01</leafValues></_>
        <_>
          <internalNodes>
            0 -1 257 -1307043428 -393686264 8958613 1946918929 271090129
            -1325203263 -1575937342 -1223554520</internalNodes>
          <leafValues>
            -4.9604061245918274e-01 4.6918618679046631e-01</leafValues></_>
        <_>
          <internalNodes>
            0 -1 194 285359223 -1689157291 -1056943905 987498642
            545392686 2051022870 42607328 -1739264368</internalNodes>
          <leafValues>
            -5.3402400016784668e-01 4.4225418567657471e-01</leafValues></_></weakClassifiers></_>
    <!-- stage 11 -->
    <_>
      <maxWeakCount>8</maxWeakCount>
      <stageThreshold>-2.3423796892166138e-01</stageThreshold>
      <weakClassifiers>
        <_>
          <internalNodes>
            0 -1 82 -1074010372 -327701 -76890886 846099682 1040037356
            -168296457 284664056 822030546</internalNodes>
          <leafValues>
            -4.3750000000000000e-01 5.3698867559432983e-01</leafValues></_>
        <_>
          <internalNodes>
            0 -1 161 538394979 -1120402657 1358965013 1000865831
            -1936745553 -1988067167 998908559 1032520211</internalNodes>
          <leafValues>
            -4.6085885167121887e-01 4.5798236131668091e-01</leafValues></_>
        <_>
          <internalNodes>
            0 -1 122 -1076619951 -310307567 -1836575719 810685513
            -1195229177 -87416676 -192885998 -1082081441</internalNodes>
          <leafValues>
            -4.2754256725311279e-01 4.7700336575508118e-01</leafValues></_>
        <_>
          <internalNodes>
            0 -1 363 -560661211 583722962 -1074266254 -456725873
            763354995 -1929545730 -2063650568 -914358664</internalNodes>
          <leafValues>
            -4.1811928153038025e-01 4.9752867221832275e-01</leafValues></_>
        <_>
          <internalNodes>
            0 -1 205 -720111664 -2146660096 146838964 1933783545
            -1979710830 1280279080 -1971156145 40601619</internalNodes>
          <leafValues>
            -5.4502433538436890e-01 4.1197398304939270e-01</leafValues></_>
        <_>
          <internalNodes>
            0 -1 69 -1802475345 -263499701 -2139084572 -669859839
            939543847 -1132421104 58870112 -350229718</internalNodes>
          <leafValues>
            -5.1553225517272949e-01 4.5796287059783936e-01</leafValues></_>
        <_>
          <internalNodes>
            0 -1 316 -212075547 -550468606 789009 1686307336 -1321462632
            -1724907391 982269968 8880280</internalNodes>
          <leafValues>
            -6.2535303831100464e-01 3.9022469520568848e-01</leafValues></_>
        <_>
          <internalNodes>
            0 -1 28 -167349041 -2025467896 1342216592 -191217022
            -2013120396 1745158144 -1861396428 -481164730</internalNodes>
          <leafValues>
            -5.0034105777740479e-01 4.7972199320793152e-01</leafValues></_></weakClassifiers></_>
    <!-- stage 12 -->
    <_>
      <maxWeakCount>11</maxWeakCount>
      <stageThreshold>-8.2636487483978271e-01</stageThreshold>
      <weakClassifiers>
        <_>
          <internalNodes>
            0 -1 79 805461740 1237320224 -2147221372 1201029252
            -1270759264 -1644035966 -2029419324 -1610088288</internalNodes>
          <leafValues>
            -6.1111110448837280e-01 4.4859102368354797e-01</leafValues></_>
        <_>
          <internalNodes>
            0 -1 68 147202506 -781077247 -1862119229 -737377073
            1887445781 440467489 -1060154500 2049406523</internalNodes>
          <leafValues>
            -5.7307845354080200e-01 3.2682916522026062e-01</leafValues></_>
        <_>
          <internalNodes>
            0 -1 300 -1811386943 -1828633983 -2113879801 -225633792
            -1610055014 -1065172992 -1602213695 -1411462012</internalNodes>
          <leafValues>
            -3.7283912301063538e-01 4.9405464529991150e-01</leafValues></_>
        <_>
          <internalNodes>
            0 -1 328 930214665 -1591951037 -1727920695 -1776848382
            -2010922809 -2113691518 1009221954 -2066757457</internalNodes>
          <leafValues>
            -4.2885136604309082e-01 4.5067197084426880e-01</leafValues></_>
        <_>
          <internalNodes>
            0 -1 30 -254354857 -738082686 114689 -519925630 1145054252
            151070729 -1843330995 1933003343</internalNodes>
          <leafValues>
            -4.5455896854400635e-01 4.3250510096549988e-01</leafValues></_>
        <_>
          <internalNodes>
            0 -1 185 -1984571902 1360045328 -1602150397 -1891335856
            1358955696 974192963 -1472182007 540487703</internalNodes>
          <leafValues>
            -5.5359792709350586e-01 3.7263178825378418e-01</leafValues></_>
        <_>
          <internalNodes>
            0 -1 62 537563841 1170210900 1073824027 -248489719
            -2146377575 1881669761 427862299 10830470</internalNodes>
          <leafValues>
            -4.8190930485725403e-01 4.4729000329971313e-01</leafValues></_>
        <_>
          <internalNodes>
            0 -1 100 -415614981 -406884501 1023344379 -1212678539
            -1497620656 -982028297 -680241826 -689251442</internalNodes>
          <leafValues>
            -4.3421229720115662e-01 5.2819401025772095e-01</leafValues></_>
        <_>
          <internalNodes>
            0 -1 78 268473066 -1808658348 -1870658809 -15036089
            -2097049894 -761257823 -2125787156 -2078754816</internalNodes>
          <leafValues>
            -5.4632246494293213e-01 4.3654045462608337e-01</leafValues></_>
        <_>
          <internalNodes>
            0 -1 357 -686833247 -2097028224 1224737284 -2011999990
            -771698784 -2094825463 -1269785652 -1060668789</internalNodes>
          <leafValues>
            -4.9484077095985413e-01 4.8058477044105530e-01</leafValues></_>
        <_>
          <internalNodes>
            0 -1 103 1858683687 -809608002 2080145395 -1211109761
            928388863 -1529053193 2146786379 1132424401</internalNodes>
          <leafValues>
            -4.3343007564544678e-01 5.3168457746505737e-01</leafValues></_></weakClassifiers></_>
    <!-- stage 13 -->
    <_>
      <maxWeakCount>10</maxWeakCount>
      <stageThreshold>-8.8380402326583862e-01</stageThreshold>
      <weakClassifiers>
        <_>
          <internalNodes>
            0 -1 58 140304 -805093277 268458249 -1792012278 8519952
            1829259264 201656330 1314062850</internalNodes>
          <leafValues>
            -5.9541982412338257e-01 4.5356869697570801e-01</leafValues></_>
        <_>
          <internalNodes>
            0 -1 56 -789388517 -262278 -1225720131 -587448648
            -1351279049 -276893710 -159490782 -749480102</internalNodes>
          <leafValues>
            -3.4255242347717285e-01 5.4080045223236084e-01</leafValues></_>
        <_>
          <internalNodes>
            0 -1 10 -1031740463 1073762563 -2122284897 -1811546050
            -1876909555 -1577054065 -1052082063 1297162353</internalNodes>
          <leafValues>
            -5.5381149053573608e-01 3.4251371026039124e-01</leafValues></_>
        <_>
          <internalNodes>
            0 -1 191 -141543553 -1636688017 -17909249 2054975356
            1602125654 -1151436809 -10598682 -279794265</internalNodes>
          <leafValues>
            -3.6308625340461731e-01 5.4700934886932373e-01</leafValues></_>
        <_>
          <internalNodes>
            0 -1 72 -1030345986 -179142267 -536862652 453510341
            -1048327795 1502249643 -1473278843 664750811</internalNodes>
          <leafValues>
            -4.4263395667076111e-01 4.6748739480972290e-01</leafValues></_>
        <_>
          <internalNodes>
            0 -1 297 -26911540 -605135632 -17879463 1387888133
            1056521420 -17373344 1920585375 -905305029</internalNodes>
          <leafValues>
            -3.9129051566123962e-01 5.2167242765426636e-01</leafValues></_>
        <_>
          <internalNodes>
            0 -1 241 -603890380 -539949808 554271543 521964253
            1125106321 -266846175 -1606382915 1510604813</internalNodes>
          <leafValues>
            -5.0386506319046021e-01 4.1599804162979126e-01</leafValues></_>
        <_>
          <internalNodes>
            0 -1 382 461296477 646283669 1342558225 -493845486
            -1069315701 1787994250 167772565 -489035101</internalNodes>
          <leafValues>
            -4.3576881289482117e-01 5.0099021196365356e-01</leafValues></_>
        <_>
          <internalNodes>
            0 -1 195 -1666856975 1723400045 1858060234 -41780777
            1064722204 -1342341377 2121533238 1274265331</internalNodes>
          <leafValues>
            -4.2185306549072266e-01 5.3653353452682495e-01</leafValues></_>
        <_>
          <internalNodes>
            0 -1 307 -2111827822 1510539798 1090590431 118493210
            -1855840108 -1702854458 -1841298010 -1841823556</internalNodes>
          <leafValues>
            -4.8646056652069092e-01 4.5259156823158264e-01</leafValues></_></weakClassifiers></_>
    <!-- stage 14 -->
    <_>
      <maxWeakCount>9</maxWeakCount>
      <stageThreshold>-5.7626837491989136e-01</stageThreshold>
      <weakClassifiers>
        <_>
          <internalNodes>
            0 -1 331 858187683 27307618 -689168 -1220546572 -1107297071
            -1933656084 -1358955147 218095613</internalNodes>
          <leafValues>
            -2.2996515035629272e-01 5.7214933633804321e-01</leafValues></_>
        <_>
          <internalNodes>
            0 -1 42 -1063872809 -12636231 -268519500 1862270587
            1165970461 -281067679 787315939 -26742161</internalNodes>
          <leafValues>
            -3.1961441040039062e-01 5.1764655113220215e-01</leafValues></_>
        <_>
          <internalNodes>
            0 -1 99 1971372928 -486485327 -2130706427 -1619787512
            -476936024 -1457385326 -1203527622 1114822664</internalNodes>
          <leafValues>
            -5.0610637664794922e-01 3.6556529998779297e-01</leafValues></_>
        <_>
          <internalNodes>
            0 -1 272 303658001 -2147302142 -2130636519 -2061265825
            -671034424 -2130595832 -1198025047 176980204</internalNodes>
          <leafValues>
            -5.4178589582443237e-01 3.5065528750419617e-01</leafValues></_>
        <_>
          <internalNodes>
            0 -1 234 1350808564 1478509083 -1073674219 1608974395
            -1853857560 1883324672 -1169354198 -885567218</internalNodes>
          <leafValues>
            -4.4108542799949646e-01 4.8405921459197998e-01</leafValues></_>
        <_>
          <internalNodes>
            0 -1 367 1409871479 -1895991179 1602088949 -1910999197
            1795114813 671018855 754777497 -1873284901</internalNodes>
          <leafValues>
            -3.7025570869445801e-01 5.3674221038818359e-01</leafValues></_>
        <_>
          <internalNodes>
            0 -1 6 1103950052 -1842446206 17858937 1402703912 -771500671
            -2146595776 -1601174880 1973518624</internalNodes>
          <leafValues>
            -5.9970569610595703e-01 3.5785192251205444e-01</leafValues></_>
        <_>
          <internalNodes>
            0 -1 165 277631345 -665612206 1627685082 -637927275
            301989905 143392800 -1551619751 -64888693</internalNodes>
          <leafValues>
            -4.8604378104209900e-01 4.7556206583976746e-01</leafValues></_>
        <_>
          <internalNodes>
            0 -1 230 -1677717360 1880162309 -2078239999 -939376560
            -486006638 -134020600 671279520 -434618228</internalNodes>
          <leafValues>
            -5.7108014822006226e-01 4.0504881739616394e-01</leafValues></_></weakClassifiers></_>
    <!-- stage 15 -->
    <_>
      <maxWeakCount>10</maxWeakCount>
      <stageThreshold>-8.0446648597717285e-01</stageThreshold>
      <weakClassifiers>
        <_>
          <internalNodes>
            0 -1 74 1853586687 -29982903 -85492877 -9404440 1598021214
            -1368244379 -1503726178 1732269330</internalNodes>
          <leafValues>
            -2.6422762870788574e-01 5.2656102180480957e-01</leafValues></_>
        <_>
          <internalNodes>
            0 -1 366 -1456448871 -1442791943 -18192643 234782198
            268275639 -1610748098 -1512835702 -1359300160</internalNodes>
          <leafValues>
            -3.4571713209152222e-01 4.6062651276588440e-01</leafValues></_>
        <_>
          <internalNodes>
            0 -1 239 800004571 2062092793 1862204594 1437601774
            -12665384 -50497826 -18895696 -1320141400</internalNodes>
          <leafValues>
            -3.9500290155410767e-01 4.5628693699836731e-01</leafValues></_>
        <_>
          <internalNodes>
            0 -1 296 -1526400160 1966604362 -1405052863 138629252
            420003976 -1735917431 -1459037463 -2144765924</internalNodes>
          <leafValues>
            -4.4847282767295837e-01 4.0312594175338745e-01</leafValues></_>
        <_>
          <internalNodes>
            0 -1 197 73137798 421053063 394795273 165187678 1511129402
            -1736376188 1258818089 265486478</internalNodes>
          <leafValues>
            -4.9221938848495483e-01 4.0543842315673828e-01</leafValues></_>
        <_>
          <internalNodes>
            0 -1 355 1962138529 -1913062282 -542355534 397867360
            520027639 1870495613 1979656181 -922908260</internalNodes>
          <leafValues>
            -4.0364214777946472e-01 4.9490749835968018e-01</leafValues></_>
        <_>
          <internalNodes>
            0 -1 143 -776908556 -1031726200 268624927 -383385520
            877926914 -1337933822 1644700464 -1291439424</internalNodes>
          <leafValues>
            -5.3666377067565918e-01 3.7995561957359314e-01</leafValues></_>
        <_>
          <internalNodes>
            0 -1 283 -2105508011 -1879046073 134333707 965869701
            537526410 -1031223167 -1467447151 -351646184</internalNodes>
          <leafValues>
            -4.6604990959167480e-01 4.8114791512489319e-01</leafValues></_>
        <_>
          <internalNodes>
            0 -1 301 148986517 -1951957021 -1344375134 -705958539
            -2021796154 -371785787 -151232521 -1917272987</internalNodes>
          <leafValues>
            -4.4086155295372009e-01 5.2019333839416504e-01</leafValues></_>
        <_>
          <internalNodes>
            0 -1 235 -292847395 -279224977 -1090683238 -1115726455
            -201843036 -158636179 -690480066 997399859</internalNodes>
          <leafValues>
            -3.7665075063705444e-01 5.9035366773605347e-01</leafValues></_></weakClassifiers></_>
    <!-- stage 16 -->
    <_>
      <maxWeakCount>10</maxWeakCount>
      <stageThreshold>-8.2246619462966919e-01</stageThreshold>
      <weakClassifiers>
        <_>
          <internalNodes>
            0 -1 108 137111940 301989929 2520 455492170 747110820
            345047168 944773656 111239690</internalNodes>
          <leafValues>
            -5.6756758689880371e-01 4.4563552737236023e-01</leafValues></_>
        <_>
          <internalNodes>
            0 -1 57 -306332433 -1695711500 -218566776 -1566334979
            -97329388 -415809932 -438896093 -413966477</internalNodes>
          <leafValues>
            -3.7475311756134033e-01 4.4780832529067993e-01</leafValues></_>
        <_>
          <internalNodes>
            0 -1 201 -497510736 1343430676 -2130574753 -771602149
            1367345632 -645791558 671170560 -1052695349</internalNodes>
          <leafValues>
            -4.3544489145278931e-01 4.3211543560028076e-01</leafValues></_>
        <_>
          <internalNodes>
            0 -1 65 -1739736673 140067842 -1878982569 -813558143
            -1068330817 -1535080444 -1992177522 70113549</internalNodes>
          <leafValues>
            -4.3867674469947815e-01 4.2231184244155884e-01</leafValues></_>
        <_>
          <internalNodes>
            0 -1 378 -939034181 -2004335870 1527775632 -867139388
            -1471634765 705726624 -1577047483 -519099245</internalNodes>
          <leafValues>
            -4.9060896039009094e-01 3.9179611206054688e-01</leafValues></_>
        <_>
          <internalNodes>
            0 -1 250 -1852350064 -754400239 -2147221295 395065601
            -1476312168 -1458929536 490768863 710046473</internalNodes>
          <leafValues>
            -5.1871556043624878e-01 3.9724984765052795e-01</leafValues></_>
        <_>
          <internalNodes>
            0 -1 18 -121650481 -286147225 -33587209 1315306722
            -1086583392 -148406284 -1778631564 -616331997</internalNodes>
          <leafValues>
            -3.6596721410751343e-01 6.0689109563827515e-01</leafValues></_>
        <_>
          <internalNodes>
            0 -1 187 -269697392 -17612816 -335806875 374811584 -17990542
            -1208619666 234546938 -448536894</internalNodes>
          <leafValues>
            -3.8192358613014221e-01 5.4934257268905640e-01</leafValues></_>
        <_>
          <internalNodes>
            0 -1 116 -254519973 -250604400 16847317 1553727520
            -939513780 994576385 -2137587336 -23438357</internalNodes>
          <leafValues>
            -4.3355131149291992e-01 5.2001923322677612e-01</leafValues></_>
        <_>
          <internalNodes>
            0 -1 244 -1678087683 -537264171 -1090617346 -1614152458
            -1610942227 -1477542485 922742013 -1646000915</internalNodes>
          <leafValues>
            -3.9906951785087585e-01 5.5098444223403931e-01</leafValues></_></weakClassifiers></_>
    <!-- stage 17 -->
    <_>
      <maxWeakCount>10</maxWeakCount>
      <stageThreshold>-7.1665859222412109e-01</stageThreshold>
      <weakClassifiers>
        <_>
          <internalNodes>
            0 -1 9 -268959754 -65666 -67307534 -1304625226 -1082327046
            -1351457483 -138691598 1798443010</internalNodes>
          <leafValues>
            -3.7931033968925476e-01 5.0819671154022217e-01</leafValues></_>
        <_>
          <internalNodes>
            0 -1 360 2000273171 1416707314 -25165825 -130752918
            -562587009 2113208318 -1124598322 1246819007</internalNodes>
          <leafValues>
            -3.4298169612884521e-01 4.7449770569801331e-01</leafValues></_>
        <_>
          <internalNodes>
            0 -1 354 549233139 -2014298116 1845456805 -186025032
            -1074806979 1723846527 -1879529475 -1749027340</internalNodes>
          <leafValues>
            -3.6034002900123596e-01 4.7625556588172913e-01</leafValues></_>
        <_>
          <internalNodes>
            0 -1 220 -1723584023 -108511218 286265563 1511063824
            285772416 -108855165 -1610609445 973777120</internalNodes>
          <leafValues>
            -3.7819570302963257e-01 4.7398099303245544e-01</leafValues></_>
        <_>
          <internalNodes>
            0 -1 178 -4331 -651432091 -822181948 -277778881 1068892059
            -1619689500 1257031562 962985771</internalNodes>
          <leafValues>
            -3.4042990207672119e-01 5.6923753023147583e-01</leafValues></_>
        <_>
          <internalNodes>
            0 -1 320 -1078987019 170589824 -688701682 1236061687
            -293669922 -1380223530 -595691946 -806535898</internalNodes>
          <leafValues>
            -3.9698073267936707e-01 5.1366132497787476e-01</leafValues></_>
        <_>
          <internalNodes>
            0 -1 123 1856445561 2128428926 922678967 -1284030595
            1557528109 -805867651 -155918660 -567085223</internalNodes>
          <leafValues>
            -4.0231344103813171e-01 5.1045113801956177e-01</leafValues></_>
        <_>
          <internalNodes>
            0 -1 160 -607387402 1517453905 1074791328 1153958395
            2013760928 -268394480 268504850 939545293</internalNodes>
          <leafValues>
            -5.6803858280181885e-01 3.7932533025741577e-01</leafValues></_>
        <_>
          <internalNodes>
            0 -1 377 -1593519970 -2037873276 -1996422959 18139392
            293765542 725753985 -1744583552 -1113465647</internalNodes>
          <leafValues>
            -5.2860367298126221e-01 4.1395100951194763e-01</leafValues></_>
        <_>
          <internalNodes>
            0 -1 17 1113244375 -133168819 16777291 -2074316224
            -2142732275 545325057 706021023 -498792701</internalNodes>
          <leafValues>
            -4.6827083826065063e-01 4.8083993792533875e-01</leafValues></_></weakClassifiers></_>
    <!-- stage 18 -->
    <_>
      <maxWeakCount>9</maxWeakCount>
      <stageThreshold>-6.4594268798828125e-01</stageThreshold>
      <weakClassifiers>
        <_>
          <internalNodes>
            0 -1 274 268972608 545542 20982072 672171031 25788869
            -1468006262 180456065 143523868</internalNodes>
          <leafValues>
            -5.8506226539611816e-01 4.3504533171653748e-01</leafValues></_>
        <_>
          <internalNodes>
            0 -1 327 859692981 -1880435162 1543501288 -146975075
            -1896362109 -1882327571 -2046928167 -1954898724</internalNodes>
          <leafValues>
            -2.7147361636161804e-01 5.7444870471954346e-01</leafValues></_>
        <_>
          <internalNodes>
            0 -1 101 -162571525 -735026927 131282 5249029 1212885248
            -821755392 -1038577430 -284983542</internalNodes>
          <leafValues>
            -3.9245647192001343e-01 4.4757479429244995e-01</leafValues></_>
        <_>
          <internalNodes>
            0 -1 49 -796727610 759796736 8765602 -720371712 -796817236
            1098940546 1669431400 -1333065950</internalNodes>
          <leafValues>
            -4.6690973639488220e-01 3.7894764542579651e-01</leafValues></_>
        <_>
          <internalNodes>
            0 -1 119 -733986221 -800882403 -1877948397 1497579533
            -2105407386 -1995898752 176956309 -142408222</internalNodes>
          <leafValues>
            -4.3798702955245972e-01 4.8917579650878906e-01</leafValues></_>
        <_>
          <internalNodes>
            0 -1 338 -1873740913 683769875 587284498 543335947 415418794
            -1601699567 1151631657 -2136094085</internalNodes>
          <leafValues>
            -4.8624259233474731e-01 3.9423954486846924e-01</leafValues></_>
        <_>
          <internalNodes>
            0 -1 47 -1048140118 -782523840 -2146361014 -1794848606
            1221111960 -2012675760 -1736171491 1954252800</internalNodes>
          <leafValues>
            -5.9879946708679199e-01 3.4830203652381897e-01</leafValues></_>
        <_>
          <internalNodes>
            0 -1 298 2066636240 1969712845 -268963974 -506012953
            -714615152 394231562 766879194 -2092700017</internalNodes>
          <leafValues>
            -3.8486245274543762e-01 5.4134565591812134e-01</leafValues></_>
        <_>
          <internalNodes>
            0 -1 155 570696900 -598716028 1497706612 470565252 973734204
            -670553816 436229357 856703089</internalNodes>
          <leafValues>
            -6.1692678928375244e-01 3.5216161608695984e-01</leafValues></_></weakClassifiers></_>
    <!-- stage 19 -->
    <_>
      <maxWeakCount>9</maxWeakCount>
      <stageThreshold>-6.8504709005355835e-01</stageThreshold>
      <weakClassifiers>
        <_>
          <internalNodes>
            0 -1 104 -788336444 -637320960 1631620436 -620747234
            26116116 -738066424 -624525307 279969952</internalNodes>
          <leafValues>
            -6.6379308700561523e-01 4.4186046719551086e-01</leafValues></_>
        <_>
          <internalNodes>
            0 -1 349 1125565264 136478979 1090600977 -1852046827
            -1576738176 508416 -1605787264 13363455</internalNodes>
          <leafValues>
            -4.8580300807952881e-01 3.5721424221992493e-01</leafValues></_>
        <_>
          <internalNodes>
            0 -1 353 791452609 715108243 2079260027 -1180001025
            -1885552905 -1515028481 -1967487528 -543194667</internalNodes>
          <leafValues>
            -3.0292668938636780e-01 5.8129692077636719e-01</leafValues></_>
        <_>
          <internalNodes>
            0 -1 15 -1837063422 -1593572797 -2112749568 -855407535
            1409669504 1569333639 423741985 -747160927</internalNodes>
          <leafValues>
            -4.4103267788887024e-01 4.4062247872352600e-01</leafValues></_>
        <_>
          <internalNodes>
            0 -1 107 -1206886316 -846960358 12599327 -195096573
            -535224038 -657915772 -2104976606 -1976038956</internalNodes>
          <leafValues>
            -6.2190657854080200e-01 3.0581453442573547e-01</leafValues></_>
        <_>
          <internalNodes>
            0 -1 336 2011883347 2039348760 -272992265 1993571131
            -948861810 -2009631552 1437880011 619787</internalNodes>
          <leafValues>
            -3.8293689489364624e-01 5.5687713623046875e-01</leafValues></_>
        <_>
          <internalNodes>
            0 -1 286 1955651032 1615681753 952238483 1015812100 33792136
            -1189265236 2015002768 -1717895128</internalNodes>
          <leafValues>
            -4.5243281126022339e-01 4.4885516166687012e-01</leafValues></_>
        <_>
          <internalNodes>
            0 -1 36 -792663831 29725959 -1608498934 1478619690
            -1509752783 -2147352574 1124198256 -639243697</internalNodes>
          <leafValues>
            -4.8661464452743530e-01 5.0044119358062744e-01</leafValues></_>
        <_>
          <internalNodes>
            0 -1 254 1091702867 1937899784 1389428761 830540816
            -1581229328 -897351552 -435994193 12787984</internalNodes>
          <leafValues>
            -4.8581036925315857e-01 4.5879948139190674e-01</leafValues></_></weakClassifiers></_>
    <!-- stage 20 -->
    <_>
      <maxWeakCount>12</maxWeakCount>
      <stageThreshold>-9.3376052379608154e-01</stageThreshold>
      <weakClassifiers>
        <_>
          <internalNodes>
            0 -1 276 -177913504 -989822952 84245 -738129904 -1853783776
            -661585792 310992960 1114316</internalNodes>
          <leafValues>
            -5.9842520952224731e-01 4.4774982333183289e-01</leafValues></_>
        <_>
          <internalNodes>
            0 -1 210 937903995 1867472127 -17383753 -1154318596
            1012915377 -960516111 1168697005 -38650592</internalNodes>
          <leafValues>
            -3.4871613979339600e-01 4.7799015045166016e-01</leafValues></_>
        <_>
          <internalNodes>
            0 -1 75 -243271017 -806387841 -1426097179 -159711367
            402329866 -1082130571 1322512316 -1000866357</internalNodes>
          <leafValues>
            -2.6583346724510193e-01 6.4828121662139893e-01</leafValues></_>
        <_>
          <internalNodes>
            0 -1 87 -1873633086 -1705918378 16777576 -744848894
            -1835158902 -1207435128 -1979448439 -732559222</internalNodes>
          <leafValues>
            -4.6412649750709534e-01 3.7682643532752991e-01</leafValues></_>
        <_>
          <internalNodes>
            0 -1 0 -130847049 1878994942 -16842889 -805441539 -269352966
            -545325059 -151128091 422948993</internalNodes>
          <leafValues>
            -4.1752684116363525e-01 4.8982009291648865e-01</leafValues></_>
        <_>
          <internalNodes>
            0 -1 173 -727682624 -480968702 -2146414591 1409538568
            -1576121552 -1064763320 -1046461766 -893505239</internalNodes>
          <leafValues>
            -4.5835456252098083e-01 4.5600548386573792e-01</leafValues></_>
        <_>
          <internalNodes>
            0 -1 380 1358290298 1064598648 -1073811473 -453611597
            651632324 -839487499 838692662 -734274245</internalNodes>
          <leafValues>
            -3.9313262701034546e-01 5.6745439767837524e-01</leafValues></_>
        <_>
          <internalNodes>
            0 -1 211 -2146365198 -1470758729 1342440121 -2133834988
            -2011154260 -118865626 -536212846 96641033</internalNodes>
          <leafValues>
            -4.7241678833961487e-01 4.5873305201530457e-01</leafValues></_>
        <_>
          <internalNodes>
            0 -1 4 285628700 271598864 604508353 -479981311 -1383917400
            -1738407515 -1215780639 1156833672</internalNodes>
          <leafValues>
            -5.4581195116043091e-01 4.0622776746749878e-01</leafValues></_>
        <_>
          <internalNodes>
            0 -1 278 -2063191396 1083982018 -2045705295 805589600
            -1987538530 -1741479032 294144144 -785629040</internalNodes>
          <leafValues>
            -5.5321121215820312e-01 3.9604419469833374e-01</leafValues></_>
        <_>
          <internalNodes>
            0 -1 374 -1639808061 536908129 33624064 -2110209778
            -520001208 223379604 -2096643832 -1544491706</internalNodes>
          <leafValues>
            -5.6747543811798096e-01 3.9000922441482544e-01</leafValues></_>
        <_>
          <internalNodes>
            0 -1 309 -45756396 -1873686504 17141889 655458565 296071314
            -1736245118 780980620 163627173</internalNodes>
          <leafValues>
            -5.5662959814071655e-01 4.1355726122856140e-01</leafValues></_></weakClassifiers></_>
    <!-- stage 21 -->
    <_>
      <maxWeakCount>11</maxWeakCount>
      <stageThreshold>-1.0036418437957764e+00</stageThreshold>
      <weakClassifiers>
        <_>
          <internalNodes>
            0 -1 81 -1400459668 -1698750744 1860495550 1794669950
            -1539998018 550657456 -328317748 1114535243</internalNodes>
          <leafValues>
            -3.1674209237098694e-01 5.1202136278152466e-01</leafValues></_>
        <_>
          <internalNodes>
            0 -1 208 -173751885 -33917683 -50710569 -96370939 1999899076
            -722076066 2012042955 -1955372841</internalNodes>
          <leafValues>
            -2.5069329142570496e-01 5.9279751777648926e-01</leafValues></_>
        <_>
          <internalNodes>
            0 -1 256 1349919120 -107892705 1610687391 -1860564713
            1754337736 747126784 -1727758118 606609449</internalNodes>
          <leafValues>
            -4.0138491988182068e-01 4.1488182544708252e-01</leafValues></_>
        <_>
          <internalNodes>
            0 -1 154 -554101253 1139023355 2122317371 1874197101
            1341877611 -1073741892 -1258889893 -71688393</internalNodes>
          <leafValues>
            -2.9097768664360046e-01 6.1158871650695801e-01</leafValues></_>
        <_>
          <internalNodes>
            0 -1 203 1400239941 1335066627 33619971 1171259996
            1746133040 151757097 680272910 700492496</internalNodes>
          <leafValues>
            -5.9286779165267944e-01 3.2125255465507507e-01</leafValues></_>
        <_>
          <internalNodes>
            0 -1 359 1551330319 -1464094937 -1074332674 -231330196
            -1225261518 637008895 -1392511887 -1410664665</internalNodes>
          <leafValues>
            -3.9897340536117554e-01 5.4478317499160767e-01</leafValues></_>
        <_>
          <internalNodes>
            0 -1 115 336244951 -619536318 16828507 1774260482
            -2088725537 67182728 1627621393 26036290</internalNodes>
          <leafValues>
            -4.3720227479934692e-01 4.6547517180442810e-01</leafValues></_>
        <_>
          <internalNodes>
            0 -1 308 -1476377904 -913194872 268435473 -1705824255
            -1006501232 -1610610104 -2096610909 -1123401712</internalNodes>
          <leafValues>
            -5.1056331396102905e-01 4.3917292356491089e-01</leafValues></_>
        <_>
          <internalNodes>
            0 -1 370 -665480827 289875738 8487049 -934262463 -1073209326
            269091003 -2007461696 1347787407</internalNodes>
          <leafValues>
            -4.9022406339645386e-01 4.3833708763122559e-01</leafValues></_>
        <_>
          <internalNodes>
            0 -1 156 -4507009 1769570170 -427900970 975478778
            -1627448563 -1619034257 -696404489 -538853540</internalNodes>
          <leafValues>
            -4.0414932370185852e-01 5.7114583253860474e-01</leafValues></_>
        <_>
          <internalNodes>
            0 -1 258 403019769 -267362216 -1711275772 631280704
            290991272 -1467801239 575203359 1569386872</internalNodes>
          <leafValues>
            -4.8387509584426880e-01 4.8369383811950684e-01</leafValues></_></weakClassifiers></_>
    <!-- stage 22 -->
    <_>
      <maxWeakCount>11</maxWeakCount>
      <stageThreshold>-7.4174290895462036e-01</stageThreshold>
      <weakClassifiers>
        <_>
          <internalNodes>
            0 -1 92 -1769132398 145141478 -1090519042 -1686831378
            2013144311 888535039 1065349628 1692399607</internalNodes>
          <leafValues>
            -3.5680750012397766e-01 5.1536434888839722e-01</leafValues></_>
        <_>
          <internalNodes>
            0 -1 37 -608713874 -13926673 -167969199 -1430671682
            -1452063129 -753802 -1268457964 -704385485</internalNodes>
          <leafValues>
            -3.5574966669082642e-01 4.6170654892921448e-01</leafValues></_>
        <_>
          <internalNodes>
            0 -1 264 -1799682864 -725544160 83920342 -671475712
            -1601496968 -817315704 973265569 -1754791768</internalNodes>
          <leafValues>
            -4.2325192689895630e-01 4.2350086569786072e-01</leafValues></_>
        <_>
          <internalNodes>
            0 -1 214 1985722512 -799834062 22167952 495166347 1482511520
            306194440 1246501838 1912817827</internalNodes>
          <leafValues>
            -4.7685220837593079e-01 3.9262026548385620e-01</leafValues></_>
        <_>
          <internalNodes>
            0 -1 44 1893198908 302090667 1610678449 -720764541
            1661098237 2016019083 -1371133429 2039024541</internalNodes>
          <leafValues>
            -4.0974530577659607e-01 4.9569597840309143e-01</leafValues></_>
        <_>
          <internalNodes>
            0 -1 215 1800611025 -1181630448 27345375 51643161
            -2088336512 -1181079544 1753219754 669548592</internalNodes>
          <leafValues>
            -4.9909996986389160e-01 4.2310869693756104e-01</leafValues></_>
        <_>
          <internalNodes>
            0 -1 91 -999538621 -398728958 268552214 357321031
            -1702817271 -1576533759 -1849442231 1864792187</internalNodes>
          <leafValues>
            -5.5288726091384888e-01 3.8290014863014221e-01</leafValues></_>
        <_>
          <internalNodes>
            0 -1 334 -2108307071 546476176 1098288 -1932906126 268677562
            37258240 1073775125 480099355</internalNodes>
          <leafValues>
            -6.2831419706344604e-01 3.7734854221343994e-01</leafValues></_>
        <_>
          <internalNodes>
            0 -1 270 -1072971480 -112979957 -721086183 1763234185
            1518840589 -1582825472 67238248 596639897</internalNodes>
          <leafValues>
            -4.9146455526351929e-01 4.4856071472167969e-01</leafValues></_>
        <_>
          <internalNodes>
            0 -1 218 -138416267 -553730059 2130696165 -85819817
            750087732 -671416482 -36839564 -2139894377</internalNodes>
          <leafValues>
            -4.3481567502021790e-01 5.4026758670806885e-01</leafValues></_>
        <_>
          <internalNodes>
            0 -1 98 1666122 1359577117 738324653 404887745 -777977189
            428875940 360718536 852724874</internalNodes>
          <leafValues>
            -5.2824485301971436e-01 4.2865586280822754e-01</leafValues></_></weakClassifiers></_>
    <!-- stage 23 -->
    <_>
      <maxWeakCount>10</maxWeakCount>
      <stageThreshold>-6.6478437185287476e-01</stageThreshold>
      <weakClassifiers>
        <_>
          <internalNodes>
            0 -1 243 737072925 -1867055381 -1073762819 199080383
            -1113718795 150863485 753841133 415041912</internalNodes>
          <leafValues>
            -1.9453924894332886e-01 5.6077629327774048e-01</leafValues></_>
        <_>
          <internalNodes>
            0 -1 149 -37942149 -1155158 -859865242 -1628471708
            1069421329 -34112161 1056710580 -15155409</internalNodes>
          <leafValues>
            -3.2676345109939575e-01 4.8784890770912170e-01</leafValues></_>
        <_>
          <internalNodes>
            0 -1 255 -184790800 525574148 -1719483634 -1022196989
            430440588 -1962862584 142650127 -1205724408</internalNodes>
          <leafValues>
            -4.3889218568801880e-01 3.6365023255348206e-01</leafValues></_>
        <_>
          <internalNodes>
            0 -1 350 -136326379 -705501787 -1879150827 -260200217
            1557589304 -831291855 -243859815 -799805729</internalNodes>
          <leafValues>
            -3.0881634354591370e-01 5.5362862348556519e-01</leafValues></_>
        <_>
          <internalNodes>
            0 -1 77 1692878262 -1794600890 1128366481 604418058
            729966664 -1851258848 -1333118292 975304978</internalNodes>
          <leafValues>
            -4.7539803385734558e-01 4.0356102585792542e-01</leafValues></_>
        <_>
          <internalNodes>
            0 -1 268 -189377871 -386948013 -805634087 1540177727
            1338293933 -170001475 -444666439 -1622535716</internalNodes>
          <leafValues>
            -3.5527256131172180e-01 5.6370836496353149e-01</leafValues></_>
        <_>
          <internalNodes>
            0 -1 135 1812353032 1199770822 1879179281 1347952833
            1527513351 -335535574 1388495506 -939325910</internalNodes>
          <leafValues>
            -4.5000064373016357e-01 4.3834725022315979e-01</leafValues></_>
        <_>
          <internalNodes>
            0 -1 388 -760551436 1258291055 -273252446 569109629
            526253670 775858044 -541188951 -545521985</internalNodes>
          <leafValues>
            -3.1383192539215088e-01 6.4800757169723511e-01</leafValues></_>
        <_>
          <internalNodes>
            0 -1 181 5393821 -451933711 352485633 -66543205 76048097
            1384255497 -2121145494 1766089588</internalNodes>
          <leafValues>
            -4.8137444257736206e-01 4.6055918931961060e-01</leafValues></_>
        <_>
          <internalNodes>
            0 -1 33 1845514819 -770932590 85028438 1075420039 1212304720
            402890883 -16121246 285723255</internalNodes>
          <leafValues>
            -6.4061629772186279e-01 3.2163938879966736e-01</leafValues></_></weakClassifiers></_>
    <!-- stage 24 -->
    <_>
      <maxWeakCount>11</maxWeakCount>
      <stageThreshold>-7.6653021574020386e-01</stageThreshold>
      <weakClassifiers>
        <_>
          <internalNodes>
            0 -1 76 -155261109 352251645 -1097988 -67191130 1045246988
            2002124661 -1628473552 -10012830</internalNodes>
          <leafValues>
            -2.3339658975601196e-01 5.3757226467132568e-01</leafValues></_>
        <_>
          <internalNodes>
            0 -1 184 -1333579376 -749416284 268734742 1004011545
            1343079304 -1423900214 -1388158733 690636800</internalNodes>
          <leafValues>
            -4.7026473283767700e-01 3.5543376207351685e-01</leafValues></_>
        <_>
          <internalNodes>
            0 -1 332 -2055152968 -880664836 -1074004365 -705208459
            1610596335 -21709066 771419550 -1650978607</internalNodes>
          <leafValues>
            -3.4963274002075195e-01 4.8257741332054138e-01</leafValues></_>
        <_>
          <internalNodes>
            0 -1 137 -559129364 -10986369 -117455184 1518174001
            -1266791092 1161068347 -808296513 -2457926</internalNodes>
          <leafValues>
            -3.5511213541030884e-01 5.0099194049835205e-01</leafValues></_>
        <_>
          <internalNodes>
            0 -1 330 409663301 -2130558460 -2147480823 605201920
            307204485 1107398656 -1839906280 144425764</internalNodes>
          <leafValues>
            -5.8933740854263306e-01 3.3311519026756287e-01</leafValues></_>
        <_>
          <internalNodes>
            0 -1 51 -700993793 -403841041 -25694531 1596894514
            -1556579058 1333618658 1736400117 -685784767</internalNodes>
          <leafValues>
            -3.9197549223899841e-01 5.2132183313369751e-01</leafValues></_>
        <_>
          <internalNodes>
            0 -1 167 542548120 -1777233638 138674581 2014458632
            100765883 -1038986774 67209497 1745551945</internalNodes>
          <leafValues>
            -4.5588299632072449e-01 4.3518128991127014e-01</leafValues></_>
        <_>
          <internalNodes>
            0 -1 110 -1710448634 689279753 -1275068055 -1338994488
            759892112 1519913096 511986201 189464579</internalNodes>
          <leafValues>
            -5.6598907709121704e-01 3.7427231669425964e-01</leafValues></_>
        <_>
          <internalNodes>
            0 -1 324 -716987648 858882125 302010496 293928979
            -1744829724 -1668153342 -670538595 -2026739049</internalNodes>
          <leafValues>
            -4.5617413520812988e-01 4.6592667698860168e-01</leafValues></_>
        <_>
          <internalNodes>
            0 -1 129 847344214 -326548394 80 445186582 -1995437560
            1526727707 1074528296 120218400</internalNodes>
          <leafValues>
            -7.1446621417999268e-01 3.1002104282379150e-01</leafValues></_>
        <_>
          <internalNodes>
            0 -1 317 153653465 -2091888623 -1795096383 -1227765307
            -1946047729 -1584919414 -979326832 -1464645596</internalNodes>
          <leafValues>
            -4.7066128253936768e-01 4.6535396575927734e-01</leafValues></_></weakClassifiers></_>
    <!-- stage 25 -->
    <_>
      <maxWeakCount>10</maxWeakCount>
      <stageThreshold>-9.1004073619842529e-01</stageThreshold>
      <weakClassifiers>
        <_>
          <internalNodes>
            0 -1 248 -1428153072 -1359450244 -1073947673 -1378345740
            965103061 -574980120 -2047027756 -1971579136</internalNodes>
          <leafValues>
            -3.4351146221160889e-01 4.8634812235832214e-01</leafValues></_>
        <_>
          <internalNodes>
            0 -1 12 -1875400989 -836010440 -1359839263 -806388622
            -1532502287 -1097334842 -1867219439 -573072041</internalNodes>
          <leafValues>
            -2.5455096364021301e-01 5.7583922147750854e-01</leafValues></_>
        <_>
          <internalNodes>
            0 -1 182 811484659 -56283293 1811889146 2134146814 645757004
            -855671426 -1118802439 -37632020</internalNodes>
          <leafValues>
            -3.3295911550521851e-01 4.7422382235527039e-01</leafValues></_>
        <_>
          <internalNodes>
            0 -1 329 650098037 -969574843 -1073813892 -545506177
            1190853597 -1635799688 87932873 -1399866307</internalNodes>
          <leafValues>
            -3.3502686023712158e-01 5.0798290967941284e-01</leafValues></_>
        <_>
          <internalNodes>
            0 -1 89 -1976241088 1899314859 -201544008 -1548747337
            -290251709 -353157705 -571017276 -72100333</internalNodes>
          <leafValues>
            -3.1538799405097961e-01 5.8146810531616211e-01</leafValues></_>
        <_>
          <internalNodes>
            0 -1 369 -1526279751 -2062769983 1233209753 -12426919
            134381723 -1732116469 -2012610416 -71735668</internalNodes>
          <leafValues>
            -4.2368996143341064e-01 4.7408953309059143e-01</leafValues></_>
        <_>
          <internalNodes>
            0 -1 233 -1372481417 -808509478 1071627849 770572950
            1047913606 -948109314 -717799635 -1334870065</internalNodes>
          <leafValues>
            -3.1911814212799072e-01 6.1688679456710815e-01</leafValues></_>
        <_>
          <internalNodes>
            0 -1 312 933362065 -109331344 -1361252355 269600464
            -1076117538 -151988290 374144415 464512097</internalNodes>
          <leafValues>
            -3.6831429600715637e-01 5.3547620773315430e-01</leafValues></_>
        <_>
          <internalNodes>
            0 -1 128 -780136421 -1802960440 -1794551334 386941060
            -1476395002 279054369 1342195824 -1625407330</internalNodes>
          <leafValues>
            -4.5689043402671814e-01 4.6225798130035400e-01</leafValues></_>
        <_>
          <internalNodes>
            0 -1 88 -1328046337 451776494 1865088881 -813453319
            -512205113 -994902333 242495120 -697845297</internalNodes>
          <leafValues>
            -3.8377892971038818e-01 5.4897242784500122e-01</leafValues></_></weakClassifiers></_>
    <!-- stage 26 -->
    <_>
      <maxWeakCount>11</maxWeakCount>
      <stageThreshold>-6.6439074277877808e-01</stageThreshold>
      <weakClassifiers>
        <_>
          <internalNodes>
            0 -1 46 -1400070084 -843170060 -1359020034 -2625859
            -1583024145 -1528496268 929945028 67470796</internalNodes>
          <leafValues>
            -3.2186731696128845e-01 4.8877373337745667e-01</leafValues></_>
        <_>
          <internalNodes>
            0 -1 245 268651304 1074790934 -780103178 491782803 444620964
            -2134193272 -125124307 -1474683680</internalNodes>
          <leafValues>
            -4.1617420315742493e-01 3.6861234903335571e-01</leafValues></_>
        <_>
          <internalNodes>
            0 -1 80 -514809116 278040898 536870912 1514963465 1410355616
            822149519 -804617524 449677960</internalNodes>
          <leafValues>
            -5.4141891002655029e-01 3.0188760161399841e-01</leafValues></_>
        <_>
          <internalNodes>
            0 -1 261 1086527379 826475544 33657285 -596639223
            -1476328598 -389545856 696912445 1427127349</internalNodes>
          <leafValues>
            -4.7269049286842346e-01 3.6661982536315918e-01</leafValues></_>
        <_>
          <internalNodes>
            0 -1 222 -349897481 1802957944 -1376108556 -1100742687
            1947760656 -50831881 1683389918 -68474669</internalNodes>
          <leafValues>
            -2.9692429304122925e-01 5.9700155258178711e-01</leafValues></_>
        <_>
          <internalNodes>
            0 -1 341 -1179463631 800127995 -352322503 -1749342236
            -1360986677 -1376911393 -1532260673 689947869</internalNodes>
          <leafValues>
            -4.1466853022575378e-01 4.5103508234024048e-01</leafValues></_>
        <_>
          <internalNodes>
            0 -1 280 -98063728 2104160159 1073659509 686686030
            1871510684 -1361301642 -987859797 2050187161</internalNodes>
          <leafValues>
            -4.2037725448608398e-01 4.5009219646453857e-01</leafValues></_>
        <_>
          <internalNodes>
            0 -1 38 -800812505 1367408650 -2138865022 -2113847131
            4932096 1879113792 1086480464 -770629625</internalNodes>
          <leafValues>
            -5.9888094663619995e-01 3.6313867568969727e-01</leafValues></_>
        <_>
          <internalNodes>
            0 -1 228 -268324688 -1643984239 290455825 -955690991
            1904214537 1519059008 1149927565 809621423</internalNodes>
          <leafValues>
            -4.5769193768501282e-01 4.5454943180084229e-01</leafValues></_>
        <_>
          <internalNodes>
            0 -1 347 2143026103 771657517 2147270266 1874848775
            1870647093 1278607357 2147382903 -1046352257</internalNodes>
          <leafValues>
            -4.2774695158004761e-01 5.1258820295333862e-01</leafValues></_>
        <_>
          <internalNodes>
            0 -1 376 -2134851360 -2122309440 1375768585 36766754
            -2143125366 -1559724026 570593954 -1395998636</internalNodes>
          <leafValues>
            -5.1739490032196045e-01 4.0653473138809204e-01</leafValues></_></weakClassifiers></_>
    <!-- stage 27 -->
    <_>
      <maxWeakCount>10</maxWeakCount>
      <stageThreshold>-7.5362938642501831e-01</stageThreshold>
      <weakClassifiers>
        <_>
          <internalNodes>
            0 -1 141 2134514315 2078244835 1728020196 -230981649
            2008763980 2117435007 -1900742793 -1103319948</internalNodes>
          <leafValues>
            -1.5541601181030273e-01 5.7543104887008667e-01</leafValues></_>
        <_>
          <internalNodes>
            0 -1 70 1331853127 -1124171842 742344530 -1124254084
            1962896633 -814778498 -624721938 -1208471710</internalNodes>
          <leafValues>
            -3.0374625325202942e-01 4.9881598353385925e-01</leafValues></_>
        <_>
          <internalNodes>
            0 -1 253 -26954768 -287457648 -294125577 -17248526
            -332104364 -538124292 -847841820 -534815680</internalNodes>
          <leafValues>
            -3.7844267487525940e-01 4.3141013383865356e-01</leafValues></_>
        <_>
          <internalNodes>
            0 -1 240 939788378 -1864875447 629218263 -1809915640
            -1727973292 -1465350879 1302078624 -58695200</internalNodes>
          <leafValues>
            -4.9547302722930908e-01 3.6859488487243652e-01</leafValues></_>
        <_>
          <internalNodes>
            0 -1 180 -151720064 -17636236 -269607099 1907973811
            1323664792 -722077716 1197301432 -108424533</internalNodes>
          <leafValues>
            -4.1061303019523621e-01 4.5247352123260498e-01</leafValues></_>
        <_>
          <internalNodes>
            0 -1 199 2018702988 -1943678452 8741378 1880078725
            1073775288 -871940054 -1051328416 -1441892283</internalNodes>
          <leafValues>
            -4.8728910088539124e-01 3.7410607933998108e-01</leafValues></_>
        <_>
          <internalNodes>
            0 -1 142 1086703828 -1723506154 4276327 2114985987
            -1732145478 -376862592 139008522 462567436</internalNodes>
          <leafValues>
            -4.6873897314071655e-01 4.1164460778236389e-01</leafValues></_>
        <_>
          <internalNodes>
            0 -1 294 -1356670636 2145578470 -1073874959 -541557067
            -1887781019 -76587176 1207441112 -1377169328</internalNodes>
          <leafValues>
            -4.3030264973640442e-01 4.6755260229110718e-01</leafValues></_>
        <_>
          <internalNodes>
            0 -1 174 1520056553 1550743518 -1091126209 938291169
            1290710685 801832800 2132618733 -1460795939</internalNodes>
          <leafValues>
            -3.9404630661010742e-01 5.1662027835845947e-01</leafValues></_>
        <_>
          <internalNodes>
            0 -1 273 189800673 1413497232 21225582 -130395817
            -1711199855 -379418112 -1962867245 -372727744</internalNodes>
          <leafValues>
            -4.3421861529350281e-01 4.7919008135795593e-01</leafValues></_></weakClassifiers></_>
    <!-- stage 28 -->
    <_>
      <maxWeakCount>11</maxWeakCount>
      <stageThreshold>-8.3005738258361816e-01</stageThreshold>
      <weakClassifiers>
        <_>
          <internalNodes>
            0 -1 342 -1467914716 220757537 -402685960 -1083053164
            801091559 -1128562689 1023293020 100503035</internalNodes>
          <leafValues>
            -2.6556017994880676e-01 5.1985228061676025e-01</leafValues></_>
        <_>
          <internalNodes>
            0 -1 118 -591432609 -1562165393 -402653574 -147771777
            -8498106 796688368 -1157714406 -89111471</internalNodes>
          <leafValues>
            -3.4243398904800415e-01 4.3933284282684326e-01</leafValues></_>
        <_>
          <internalNodes>
            0 -1 266 306995141 -1271103798 -52461843 2147086279
            -1099983379 1958133727 1006550765 -127620063</internalNodes>
          <leafValues>
            -3.4411942958831787e-01 5.0212687253952026e-01</leafValues></_>
        <_>
          <internalNodes>
            0 -1 287 -1662525609 1377718485 -1857972071 1427968128
            1122517194 -1043692759 2425401 959981361</internalNodes>
          <leafValues>
            -4.2069408297538757e-01 4.2066231369972229e-01</leafValues></_>
        <_>
          <internalNodes>
            0 -1 302 -1146511380 -538419519 -16961674 160296764
            -1094140441 930791102 -2002483735 -376449615</internalNodes>
          <leafValues>
            -3.5425227880477905e-01 5.2438789606094360e-01</leafValues></_>
        <_>
          <internalNodes>
            0 -1 97 -259196762 1309446288 -792714750 -2032738274
            13144329 -2113826776 167773610 -535814101</internalNodes>
          <leafValues>
            -5.4354721307754517e-01 3.4663739800453186e-01</leafValues></_>
        <_>
          <internalNodes>
            0 -1 112 -1053022767 1914830983 -2080292646 -1718927283
            730989232 -479034368 268985868 740327844</internalNodes>
          <leafValues>
            -4.7366318106651306e-01 4.0729269385337830e-01</leafValues></_>
        <_>
          <internalNodes>
            0 -1 145 1278139861 -597529162 -1074831380 162572710
            -1322607187 -963772426 1190837467 -1142975289</internalNodes>
          <leafValues>
            -3.0087244510650635e-01 6.9979089498519897e-01</leafValues></_>
        <_>
          <internalNodes>
            0 -1 94 460322383 519928446 -67471299 929687550 1475831060
            -563644546 -150995218 -278003849</internalNodes>
          <leafValues>
            -4.1500273346900940e-01 5.0748211145401001e-01</leafValues></_>
        <_>
          <internalNodes>
            0 -1 365 707583829 -843113995 -268898633 -1224853132
            -427827785 109016948 1727444249 -9315207</internalNodes>
          <leafValues>
            -3.9936140179634094e-01 5.3699624538421631e-01</leafValues></_>
        <_>
          <internalNodes>
            0 -1 304 -353235734 -199692 788444899 -26087583 1040031656
            -830605441 -1796053941 -1883580193</internalNodes>
          <leafValues>
            -3.5504329204559326e-01 5.7977664470672607e-01</leafValues></_></weakClassifiers></_>
    <!-- stage 29 -->
    <_>
      <maxWeakCount>11</maxWeakCount>
      <stageThreshold>-8.0606222152709961e-01</stageThreshold>
      <weakClassifiers>
        <_>
          <internalNodes>
            0 -1 263 -31593680 -786301697 -941670595 -911691104
            1072803768 -243534021 -514671089 26784142</internalNodes>
          <leafValues>
            -1.1600587517023087e-01 5.8144795894622803e-01</leafValues></_>
        <_>
          <internalNodes>
            0 -1 251 -80432743 1273232574 1860378101 1797498743
            -442523742 -269492664 -1267493685 -807409957</internalNodes>
          <leafValues>
            -1.6896085441112518e-01 7.3357450962066650e-01</leafValues></_>
        <_>
          <internalNodes>
            0 -1 166 308164539 2049529582 -369571204 -470352658
            -92844370 -1518372875 1450591931 -1191268358</internalNodes>
          <leafValues>
            -2.5046613812446594e-01 5.6115806102752686e-01</leafValues></_>
        <_>
          <internalNodes>
            0 -1 3 -510399727 -376434541 -2013261733 -1655238021
            -1046461476 -385253371 1610838773 2036449399</internalNodes>
          <leafValues>
            -3.7151843309402466e-01 4.5415309071540833e-01</leafValues></_>
        <_>
          <internalNodes>
            0 -1 96 -786200830 271636290 38011444 -1727823316
            -1593733054 -1307574007 1619077580 1343076874</internalNodes>
          <leafValues>
            -4.7893956303596497e-01 3.7724646925926208e-01</leafValues></_>
        <_>
          <internalNodes>
            0 -1 229 960734865 1407488294 -2147472814 690946304
            -1862061316 1158152354 -1455093374 684032726</internalNodes>
          <leafValues>
            -4.4782078266143799e-01 4.1570779681205750e-01</leafValues></_>
        <_>
          <internalNodes>
            0 -1 151 -148626635 1233322072 1975554385 1635820800
            906109468 942669857 -1188136536 -1486204690</internalNodes>
          <leafValues>
            -4.2959091067314148e-01 4.4228768348693848e-01</leafValues></_>
        <_>
          <internalNodes>
            0 -1 269 -2146874778 1107419352 805880216 1479541648
            55050468 -1147108735 -2113830727 -917200382</internalNodes>
          <leafValues>
            -4.9873679876327515e-01 4.0558555722236633e-01</leafValues></_>
        <_>
          <internalNodes>
            0 -1 379 1174538533 335626628 893386841 -729742190
            -1071001381 1510555650 -754539878 816687787</internalNodes>
          <leafValues>
            -4.1768130660057068e-01 4.6843612194061279e-01</leafValues></_>
        <_>
          <internalNodes>
            0 -1 177 -797291160 106502 68452628 391860355 -1064327975
            423854218 -1954182870 810760532</internalNodes>
          <leafValues>
            -5.4877388477325439e-01 3.6613860726356506e-01</leafValues></_>
        <_>
          <internalNodes>
            0 -1 356 -540028371 877975402 -1078475535 2123595511
            -294454055 -1904443532 -1132718461 -217318629</internalNodes>
          <leafValues>
            -3.4299647808074951e-01 6.3699388504028320e-01</leafValues></_></weakClassifiers></_>
    <!-- stage 30 -->
    <_>
      <maxWeakCount>12</maxWeakCount>
      <stageThreshold>-8.2501888275146484e-01</stageThreshold>
      <weakClassifiers>
        <_>
          <internalNodes>
            0 -1 159 805285886 1929305811 1072364284 653979512 985268157
            -1310851105 671014364 49071280</internalNodes>
          <leafValues>
            -3.9255014061927795e-01 4.7039473056793213e-01</leafValues></_>
        <_>
          <internalNodes>
            0 -1 153 1807539364 -205787778 -1426108437 836424046
            1212014478 -418582988 -1672257878 -13484453</internalNodes>
          <leafValues>
            -2.6776447892189026e-01 5.2995103597640991e-01</leafValues></_>
        <_>
          <internalNodes>
            0 -1 225 -560964147 -281002188 -54632573 -424173780
            -839401485 224460781 -1613335483 -1970616427</internalNodes>
          <leafValues>
            -3.1505084037780762e-01 4.7046622633934021e-01</leafValues></_>
        <_>
          <internalNodes>
            0 -1 348 -1476984131 1353543613 -352354339 360591338
            -9308265 -1082331145 -16904545 243317722</internalNodes>
          <leafValues>
            -3.1214526295661926e-01 5.0747537612915039e-01</leafValues></_>
        <_>
          <internalNodes>
            0 -1 73 -458193810 -636484457 68029452 -317915056 1610973567
            975440129 -2083946328 268470478</internalNodes>
          <leafValues>
            -5.4741609096527100e-01 3.3470666408538818e-01</leafValues></_>
        <_>
          <internalNodes>
            0 -1 204 -2022031212 -636305152 226574353 -1030549247
            -1895694182 -804648376 139190731 -1886707515</internalNodes>
          <leafValues>
            -4.4327643513679504e-01 4.5789784193038940e-01</leafValues></_>
        <_>
          <internalNodes>
            0 -1 130 284381570 -1610493740 688476253 1103661192
            615400122 52953088 940128909 512238240</internalNodes>
          <leafValues>
            -5.8637332916259766e-01 3.2867857813835144e-01</leafValues></_>
        <_>
          <internalNodes>
            0 -1 375 -1793805691 -1504975360 -670695394 -977005944
            21012587 17949129 1375797376 1447287448</internalNodes>
          <leafValues>
            -5.1474833488464355e-01 3.8335362076759338e-01</leafValues></_>
        <_>
          <internalNodes>
            0 -1 213 -2263148 500039668 -2162705 -1913193217 1559493732
            -1652728078 1591180970 -2125365253</internalNodes>
          <leafValues>
            -4.3929168581962585e-01 4.6932101249694824e-01</leafValues></_>
        <_>
          <internalNodes>
            0 -1 95 -1912340250 528525942 335594521 307237395
            -1593789816 278364336 -116783064 1758070928</internalNodes>
          <leafValues>
            -6.1867552995681763e-01 3.3018451929092407e-01</leafValues></_>
        <_>
          <internalNodes>
            0 -1 387 -646264280 -419567648 1866465000 1248324313
            -8521182 -680166405 1279504007 -749763121</internalNodes>
          <leafValues>
            -3.3890381455421448e-01 6.4287912845611572e-01</leafValues></_>
        <_>
          <internalNodes>
            0 -1 339 -63441255 2142490214 1341963421 -1518911648
            -281166579 -323158924 -1124687640 -1454377414</internalNodes>
          <leafValues>
            -3.6693993210792542e-01 6.1511820554733276e-01</leafValues></_></weakClassifiers></_>
    <!-- stage 31 -->
    <_>
      <maxWeakCount>12</maxWeakCount>
      <stageThreshold>-8.6777168512344360e-01</stageThreshold>
      <weakClassifiers>
        <_>
          <internalNodes>
            0 -1 5 574286502 1063407102 -21796 -747835844 1207391653
            1465186293 871268196 1912964388</internalNodes>
          <leafValues>
            -3.0288460850715637e-01 4.8825064301490784e-01</leafValues></_>
        <_>
          <internalNodes>
            0 -1 19 -1815882087 1107329153 -1031798773 69247106
            -536606134 -817870846 -2075687581 1699209442</internalNodes>
          <leafValues>
            -3.6318609118461609e-01 4.0338170528411865e-01</leafValues></_>
        <_>
          <internalNodes>
            0 -1 133 -1838333465 -491565192 -17404182 -1347437328
            1190804733 -721551366 -290040607 -923843191</internalNodes>
          <leafValues>
            -3.2516971230506897e-01 4.9767550826072693e-01</leafValues></_>
        <_>
          <internalNodes>
            0 -1 189 1065902867 -613941181 268503516 1586795777
            -1065346046 -16242680 1363903904 -18742687</internalNodes>
          <leafValues>
            -4.2388907074928284e-01 4.0497267246246338e-01</leafValues></_>
        <_>
          <internalNodes>
            0 -1 344 1569875442 1433735429 419528789 -1877895100
            -400660278 -585072603 205623310 404904219</internalNodes>
          <leafValues>
            -4.6021124720573425e-01 4.0058994293212891e-01</leafValues></_>
        <_>
          <internalNodes>
            0 -1 381 -1324944908 109723739 806520942 -1437597617
            -1006071640 1619034881 539120273 -2145143393</internalNodes>
          <leafValues>
            -5.4365801811218262e-01 3.3898842334747314e-01</leafValues></_>
        <_>
          <internalNodes>
            0 -1 61 1379967347 -1605368499 -2094497707 496082946
            269329102 -1979645821 813901985 1080162306</internalNodes>
          <leafValues>
            -4.7051623463630676e-01 4.1715395450592041e-01</leafValues></_>
        <_>
          <internalNodes>
            0 -1 289 -1859718028 -348941610 1358990166 -113211380
            747696136 -1941004152 19400736 -863107071</internalNodes>
          <leafValues>
            -4.7616979479789734e-01 4.3074870109558105e-01</leafValues></_>
        <_>
          <internalNodes>
            0 -1 117 -156601029 -312509442 -18879625 2147102635 -1287088
            645414757 268207966 -275043842</internalNodes>
          <leafValues>
            -3.9792451262474060e-01 5.2561402320861816e-01</leafValues></_>
        <_>
          <internalNodes>
            0 -1 295 -1579368079 -1096315143 1072562084 2004614717
            -1615487054 1593302902 395369968 -275893040</internalNodes>
          <leafValues>
            -4.0544295310974121e-01 5.2920234203338623e-01</leafValues></_>
        <_>
          <internalNodes>
            0 -1 249 -1229141263 -1229994641 2130623148 2069544454
            2134858540 -1082335879 -1004576551 192423751</internalNodes>
          <leafValues>
            -4.1825547814369202e-01 5.2411913871765137e-01</leafValues></_>
        <_>
          <internalNodes>
            0 -1 105 -923880226 -1474784507 -1056964527 1415446538
            360745593 -389283836 -880225146 1728792911</internalNodes>
          <leafValues>
            -4.6928489208221436e-01 4.7778981924057007e-01</leafValues></_></weakClassifiers></_>
    <!-- stage 32 -->
    <_>
      <maxWeakCount>10</maxWeakCount>
      <stageThreshold>-7.5867998600006104e-01</stageThreshold>
      <weakClassifiers>
        <_>
          <internalNodes>
            0 -1 59 -881983602 -1130497 788390460 -453914818 1991544354
            -1166020770 1593146466 -781132692</internalNodes>
          <leafValues>
            -1.8136438727378845e-01 5.6431537866592407e-01</leafValues></_>
        <_>
          <internalNodes>
            0 -1 114 -17465907 -162890371 -9502977 -209781257 1062018574
            -269167236 -1103831469 -1724871109</internalNodes>
          <leafValues>
            -2.9150053858757019e-01 4.9422866106033325e-01</leafValues></_>
        <_>
          <internalNodes>
            0 -1 192 381163705 -680167727 -1351307495 -224938016
            -222385512 -555221095 393641605 -1361361728</internalNodes>
          <leafValues>
            -3.3429720997810364e-01 4.7057154774665833e-01</leafValues></_>
        <_>
          <internalNodes>
            0 -1 150 -1669539853 -1687757076 -21037327 -735769759
            804437997 -642464020 -2022445665 -589165057</internalNodes>
          <leafValues>
            -3.2876136898994446e-01 5.5646979808807373e-01</leafValues></_>
        <_>
          <internalNodes>
            0 -1 279 -1096065027 1928818349 -8652843 -100702213
            -1229136155 -545375361 -1745332233 -127234707</internalNodes>
          <leafValues>
            -2.8313302993774414e-01 6.0254555940628052e-01</leafValues></_>
        <_>
          <internalNodes>
            0 -1 198 -1068576448 17875212 268439875 -731903991
            -2034121959 1481122011 7881492 1515409667</internalNodes>
          <leafValues>
            -5.0028884410858154e-01 3.7758517265319824e-01</leafValues></_>
        <_>
          <internalNodes>
            0 -1 50 -1004867362 -1203240788 352850321 377139328
            405250313 27328756 -1719195561 119609</internalNodes>
          <leafValues>
            -5.5679994821548462e-01 3.6276659369468689e-01</leafValues></_>
        <_>
          <internalNodes>
            0 -1 337 -1576013084 553698435 1224844179 -854727679
            1342423192 -1441333246 -1172792615 166699173</internalNodes>
          <leafValues>
            -5.8136188983917236e-01 3.3431309461593628e-01</leafValues></_>
        <_>
          <internalNodes>
            0 -1 63 -2145196113 495813392 84934945 -1551318460
            -1014445952 -861365243 36798659 298263937</internalNodes>
          <leafValues>
            -4.9281677603721619e-01 4.0911850333213806e-01</leafValues></_>
        <_>
          <internalNodes>
            0 -1 147 -844877096 319983834 16810004 1732388622
            -1006628341 193298582 1086338324 319955476</internalNodes>
          <leafValues>
            -6.5732455253601074e-01 3.3634674549102783e-01</leafValues></_></weakClassifiers></_>
    <!-- stage 33 -->
    <_>
      <maxWeakCount>12</maxWeakCount>
      <stageThreshold>-8.8405573368072510e-01</stageThreshold>
      <weakClassifiers>
        <_>
          <internalNodes>
            0 -1 66 -218698118 -542310537 -1359020290 -166032002
            -151617674 -47677465 2130509787 1346393348</internalNodes>
          <leafValues>
            -4.1176471114158630e-01 4.6938776969909668e-01</leafValues></_>
        <_>
          <internalNodes>
            0 -1 291 -2112336807 -721419770 1074266655 1451561233
            -536698880 -402046967 -1021799990 -1196408003</internalNodes>
          <leafValues>
            -3.7192562222480774e-01 4.1056701540946960e-01</leafValues></_>
        <_>
          <internalNodes>
            0 -1 383 2103693219 174964399 788430396 -1432224014
            -419979831 -1895858309 -2030353005 -1067203137</internalNodes>
          <leafValues>
            -3.1910574436187744e-01 4.8550286889076233e-01</leafValues></_>
        <_>
          <internalNodes>
            0 -1 290 1452820690 -758316966 -1723841117 437336212
            1080591216 -1567875039 -1979653158 978363700</internalNodes>
          <leafValues>
            -4.3918710947036743e-01 3.8194590806961060e-01</leafValues></_>
        <_>
          <internalNodes>
            0 -1 299 -173540481 -92438601 1878666229 -243327379
            -352469699 -55116062 -1091292295 -1868895913</internalNodes>
          <leafValues>
            -3.4015461802482605e-01 5.6797266006469727e-01</leafValues></_>
        <_>
          <internalNodes>
            0 -1 224 -1194240839 302170694 436322713 1359979019
            -1207019608 -1467842399 1207996040 304673033</internalNodes>
          <leafValues>
            -4.4231346249580383e-01 4.1598376631736755e-01</leafValues></_>
        <_>
          <internalNodes>
            0 -1 371 1498909011 708861974 -1862008784 -1065350842
            1075413141 -1994145277 -1051883404 1968959567</internalNodes>
          <leafValues>
            -4.3680182099342346e-01 4.4151598215103149e-01</leafValues></_>
        <_>
          <internalNodes>
            0 -1 186 -2106404704 1104347588 144326969 1016373907
            142836042 -1977581182 -256761639 -783316357</internalNodes>
          <leafValues>
            -4.3469077348709106e-01 4.7990608215332031e-01</leafValues></_>
        <_>
          <internalNodes>
            0 -1 315 -1940285328 -71170043 -804217145 1481183552
            -1962901278 -1978591200 -2121760689 -1631827276</internalNodes>
          <leafValues>
            -4.5340806245803833e-01 4.5094478130340576e-01</leafValues></_>
        <_>
          <internalNodes>
            0 -1 64 -1610611657 -1132298229 67907 289538121 551355
            -259946357 1613078884 1667670528</internalNodes>
          <leafValues>
            -5.3752762079238892e-01 4.0321999788284302e-01</leafValues></_>
        <_>
          <internalNodes>
            0 -1 362 -1826971272 -980254572 -2139057640 -528480202
            -1455341018 -905822079 -1341462390 -1230306935</internalNodes>
          <leafValues>
            -4.2402085661888123e-01 5.1383221149444580e-01</leafValues></_>
        <_>
          <internalNodes>
            0 -1 93 -1609520054 -926702958 -1055825861 -932933614
            -647165184 -1890942840 1435281446 -384941990</internalNodes>
          <leafValues>
            -5.5129581689834595e-01 3.8376927375793457e-01</leafValues></_></weakClassifiers></_>
    <!-- stage 34 -->
    <_>
      <maxWeakCount>11</maxWeakCount>
      <stageThreshold>-7.4316686391830444e-01</stageThreshold>
      <weakClassifiers>
        <_>
          <internalNodes>
            0 -1 271 842395698 775093996 1006496732 779615890 1056899052
            -1931510018 267349401 686228856</internalNodes>
          <leafValues>
            -3.6675462126731873e-01 4.8397976160049438e-01</leafValues></_>
        <_>
          <internalNodes>
            0 -1 55 448985762 -1584738142 1342314969 1258571008
            -2003951023 -792637437 413267969 -548181398</internalNodes>
          <leafValues>
            -4.0068021416664124e-01 3.9904302358627319e-01</leafValues></_>
        <_>
          <internalNodes>
            0 -1 107 -191023406 -553627648 -1857928813 1644698677
            -1182330352 -1708498937 -1428585890 -1543477145</internalNodes>
          <leafValues>
            -4.9813690781593323e-01 3.3513507246971130e-01</leafValues></_>
        <_>
          <internalNodes>
            0 -1 227 858616995 -1146129047 -1073746580 867893112
            -1619604271 -36348428 653540336 -437764139</internalNodes>
          <leafValues>
            -3.6241978406906128e-01 4.8988884687423706e-01</leafValues></_>
        <_>
          <internalNodes>
            0 -1 48 1091006550 1946992658 546361716 -498169714
            -619896576 1404045312 -377364461 1358252032</internalNodes>
          <leafValues>
            -6.6334116458892822e-01 2.5352525711059570e-01</leafValues></_>
        <_>
          <internalNodes>
            0 -1 32 -763695161 -355488785 -1628478136 111488898
            -579059966 1450508286 -2068022252 -558660250</internalNodes>
          <leafValues>
            -4.0823855996131897e-01 4.7417432069778442e-01</leafValues></_>
        <_>
          <internalNodes>
            0 -1 134 -1910452000 120120466 -1878910647 -1844678082
            -1035613556 -1534427104 -667541120 -1415013952</internalNodes>
          <leafValues>
            -4.6685403585433960e-01 4.2746344208717346e-01</leafValues></_>
        <_>
          <internalNodes>
            0 -1 176 21088696 1946337542 1075849267 -1878842976
            279030042 -1989672919 1082401241 -959299316</internalNodes>
          <leafValues>
            -4.4983375072479248e-01 4.4098299741744995e-01</leafValues></_>
        <_>
          <internalNodes>
            0 -1 102 1633256122 1377960325 -1593288164 -2129389421
            1090781392 1937899720 2034418464 961569560</internalNodes>
          <leafValues>
            -5.8860027790069580e-01 3.6704891920089722e-01</leafValues></_>
        <_>
          <internalNodes>
            0 -1 340 -1262506091 -1636958495 -285741463 -507947332
            -855671804 -1128792296 -571177848 -1649304326</internalNodes>
          <leafValues>
            -3.8302728533744812e-01 5.7082921266555786e-01</leafValues></_>
        <_>
          <internalNodes>
            0 -1 306 -1739366092 1393676450 -788397029 1367736347 233868
            1800568834 739277519 1057118281</internalNodes>
          <leafValues>
            -4.6482488512992859e-01 4.6508768200874329e-01</leafValues></_></weakClassifiers></_>
    <!-- stage 35 -->
    <_>
      <maxWeakCount>10</maxWeakCount>
      <stageThreshold>-4.7535291314125061e-01</stageThreshold>
      <weakClassifiers>
        <_>
          <internalNodes>
            0 -1 171 -787233728 -1861222080 -2134621184 -536869951
            -1962729964 1176507040 -939363328 330512</internalNodes>
          <leafValues>
            -5.4978352785110474e-01 4.2128935456275940e-01</leafValues></_>
        <_>
          <internalNodes>
            0 -1 385 1296419303 547010303 108965657 72105778 1323756888
            -2039091201 1610061015 1895693939</internalNodes>
          <leafValues>
            -3.3610215783119202e-01 4.3571218848228455e-01</leafValues></_>
        <_>
          <internalNodes>
            0 -1 196 84504032 -8457302 -1560379533 1670804862
            -1116443402 -1208516616 -1623384707 -398372493</internalNodes>
          <leafValues>
