<?xml version="1.0"?>
<opencv_storage>
<cascade>
  <stageType>BOOST</stageType>
  <featureType>HAAR</featureType>
  <height>27</height>
  <width>60</width>
  <stageParams>
    <boostType>GAB</boostType>
    <minHitRate>9.9900001287460327e-01</minHitRate>
    <maxFalseAlarm>5.0000000000000000e-01</maxFalseAlarm>
    <weightTrimRate>9.4999999999999996e-01</weightTrimRate>
    <maxDepth>1</maxDepth>
    <maxWeakCount>100</maxWeakCount></stageParams>
  <featureParams>
    <maxCatCount>0</maxCatCount>
    <featSize>1</featSize>
    <mode>ALL</mode></featureParams>
  <stageNum>30</stageNum>
  <stages>
    <!-- stage 0 -->
    <_>
      <maxWeakCount>10</maxWeakCount>
      <stageThreshold>-8.8847768306732178e-01</stageThreshold>
      <weakClassifiers>
        <_>
          <internalNodes>
            0 -1 262 2.0030260086059570e-02</internalNodes>
          <leafValues>
            -5.7976651191711426e-01 6.9743102788925171e-01</leafValues></_>
        <_>
          <internalNodes>
            0 -1 92 6.2938751652836800e-03</internalNodes>
          <leafValues>
            -5.5489456653594971e-01 4.2912584543228149e-01</leafValues></_>
        <_>
          <internalNodes>
            0 -1 161 -1.1559907346963882e-02</internalNodes>
          <leafValues>
            5.8187359571456909e-01 -3.7541162967681885e-01</leafValues></_>
        <_>
          <internalNodes>
            0 -1 689 5.0067277625203133e-03</internalNodes>
          <leafValues>
            -4.5592743158340454e-01 3.7657210230827332e-01</leafValues></_>
        <_>
          <internalNodes>
            0 -1 626 -4.5845168642699718e-03</internalNodes>
          <leafValues>
            7.0483928918838501e-01 -2.2231887280941010e-01</leafValues></_>
        <_>
          <internalNodes>
            0 -1 588 1.6471957787871361e-03</internalNodes>
          <leafValues>
            -2.4565783143043518e-01 5.8095282316207886e-01</leafValues></_>
        <_>
          <internalNodes>
            0 -1 160 -1.6008538007736206e-01</internalNodes>
          <leafValues>
            -6.8683898448944092e-01 2.0953454077243805e-01</leafValues></_>
        <_>
          <internalNodes>
            0 -1 217 7.1260236203670502e-02</internalNodes>
          <leafValues>
            2.0353239774703979e-01 -7.9883277416229248e-01</leafValues></_>
        <_>
          <internalNodes>
            0 -1 346 1.2172510614618659e-03</internalNodes>
          <leafValues>
            -2.4134294688701630e-01 6.5173906087875366e-01</leafValues></_>
        <_>
          <internalNodes>
            0 -1 315 -5.8439867570996284e-03</internalNodes>
          <leafValues>
            5.4127568006515503e-01 -2.7766865491867065e-01</leafValues></_></weakClassifiers></_>
    <!-- stage 1 -->
    <_>
      <maxWeakCount>12</maxWeakCount>
      <stageThreshold>-1.1707818508148193e+00</stageThreshold>
      <weakClassifiers>
        <_>
          <internalNodes>
            0 -1 284 2.2617399692535400e-02</internalNodes>
          <leafValues>
            5.0928169488906860e-01 -6.0122698545455933e-01</leafValues></_>
        <_>
          <internalNodes>
            0 -1 499 -2.3299859836697578e-02</internalNodes>
          <leafValues>
            6.6994583606719971e-01 -2.6339980959892273e-01</leafValues></_>
        <_>
          <internalNodes>
            0 -1 151 -8.6970463395118713e-02</internalNodes>
          <leafValues>
            -7.8439366817474365e-01 2.2357331216335297e-01</leafValues></_>
        <_>
          <internalNodes>
            0 -1 367 4.1919030249118805e-02</internalNodes>
          <leafValues>
            1.2166769057512283e-01 -9.1106027364730835e-01</leafValues></_>
        <_>
          <internalNodes>
            0 -1 545 4.6418039128184319e-03</internalNodes>
          <leafValues>
            -3.0289202928543091e-01 4.5802912116050720e-01</leafValues></_>
        <_>
          <internalNodes>
            0 -1 293 1.2759148143231869e-02</internalNodes>
          <leafValues>
            -2.4714514613151550e-01 6.1395162343978882e-01</leafValues></_>
        <_>
          <internalNodes>
            0 -1 537 3.5447534173727036e-02</internalNodes>
          <leafValues>
            1.6035237908363342e-01 -9.8616451025009155e-01</leafValues></_>
        <_>
          <internalNodes>
            0 -1 693 8.7852962315082550e-04</internalNodes>
          <leafValues>
            -2.0783960819244385e-01 6.5433442592620850e-01</leafValues></_>
        <_>
          <internalNodes>
            0 -1 725 4.7490559518337250e-04</internalNodes>
          <leafValues>
            -2.1138301491737366e-01 5.2859169244766235e-01</leafValues></_>
        <_>
          <internalNodes>
            0 -1 383 1.1994643136858940e-03</internalNodes>
          <leafValues>
            -2.1157670021057129e-01 5.2980774641036987e-01</leafValues></_>
        <_>
          <internalNodes>
            0 -1 897 -6.4282771199941635e-03</internalNodes>
          <leafValues>
            5.1930785179138184e-01 -2.3713479936122894e-01</leafValues></_>
        <_>
          <internalNodes>
            0 -1 246 -1.0437604039907455e-02</internalNodes>
          <leafValues>
            7.0786893367767334e-01 -1.5469822287559509e-01</leafValues></_></weakClassifiers></_>
    <!-- stage 2 -->
    <_>
      <maxWeakCount>14</maxWeakCount>
      <stageThreshold>-9.6110945940017700e-01</stageThreshold>
      <weakClassifiers>
        <_>
          <internalNodes>
            0 -1 234 8.2941818982362747e-03</internalNodes>
          <leafValues>
            -4.2079207301139832e-01 5.2110248804092407e-01</leafValues></_>
        <_>
          <internalNodes>
            0 -1 282 1.0948589444160461e-01</internalNodes>
          <leafValues>
            -2.5484237074851990e-01 5.7609421014785767e-01</leafValues></_>
        <_>
          <internalNodes>
            0 -1 2 -5.1026316359639168e-03</internalNodes>
          <leafValues>
            5.8209913969039917e-01 -2.2696962952613831e-01</leafValues></_>
        <_>
          <internalNodes>
            0 -1 417 6.7009907215833664e-03</internalNodes>
          <leafValues>
            -2.3388387262821198e-01 5.2188628911972046e-01</leafValues></_>
        <_>
          <internalNodes>
            0 -1 131 -2.8190970420837402e-02</internalNodes>
          <leafValues>
            5.9786057472229004e-01 -1.8659587204456329e-01</leafValues></_>
        <_>
          <internalNodes>
            0 -1 354 3.3317096531391144e-03</internalNodes>
          <leafValues>
            -2.0287227630615234e-01 5.4870909452438354e-01</leafValues></_>
        <_>
          <internalNodes>
            0 -1 101 2.1442794799804688e-01</internalNodes>
          <leafValues>
            1.2860472500324249e-01 -8.0489569902420044e-01</leafValues></_>
        <_>
          <internalNodes>
            0 -1 686 1.5517570078372955e-02</internalNodes>
          <leafValues>
            1.2062513083219528e-01 -7.8768604993820190e-01</leafValues></_>
        <_>
          <internalNodes>
            0 -1 194 3.6738831549882889e-02</internalNodes>
          <leafValues>
            -1.7437206208705902e-01 7.0254117250442505e-01</leafValues></_>
        <_>
          <internalNodes>
            0 -1 100 1.0498306713998318e-02</internalNodes>
          <leafValues>
            -2.8532662987709045e-01 3.5087004303932190e-01</leafValues></_>
        <_>
          <internalNodes>
            0 -1 711 -1.1515920981764793e-02</internalNodes>
          <leafValues>
            5.0322031974792480e-01 -1.9102275371551514e-01</leafValues></_>
        <_>
          <internalNodes>
            0 -1 553 4.2808183934539557e-04</internalNodes>
          <leafValues>
            -2.0262573659420013e-01 4.8258590698242188e-01</leafValues></_>
        <_>
          <internalNodes>
            0 -1 550 -1.4398468192666769e-03</internalNodes>
          <leafValues>
            6.7092990875244141e-01 -1.1874230951070786e-01</leafValues></_>
        <_>
          <internalNodes>
            0 -1 758 4.5835301280021667e-03</internalNodes>
          <leafValues>
            -1.4655673503875732e-01 6.0485774278640747e-01</leafValues></_></weakClassifiers></_>
    <!-- stage 3 -->
    <_>
      <maxWeakCount>18</maxWeakCount>
      <stageThreshold>-1.1425374746322632e+00</stageThreshold>
      <weakClassifiers>
        <_>
          <internalNodes>
            0 -1 93 9.2011783272027969e-03</internalNodes>
          <leafValues>
            -3.3487299084663391e-01 5.1236748695373535e-01</leafValues></_>
        <_>
          <internalNodes>
            0 -1 705 -1.2611428275704384e-02</internalNodes>
          <leafValues>
            6.4789670705795288e-01 -1.5114092826843262e-01</leafValues></_>
        <_>
          <internalNodes>
            0 -1 710 -4.0729954838752747e-02</internalNodes>
          <leafValues>
            6.5417540073394775e-01 -1.4214320480823517e-01</leafValues></_>
        <_>
          <internalNodes>
            0 -1 472 8.1826150417327881e-03</internalNodes>
          <leafValues>
            -2.3957140743732452e-01 5.0675612688064575e-01</leafValues></_>
        <_>
          <internalNodes>
            0 -1 369 -1.3989078812301159e-02</internalNodes>
          <leafValues>
            6.3514977693557739e-01 -1.4938783645629883e-01</leafValues></_>
        <_>
          <internalNodes>
            0 -1 493 -1.8814360722899437e-02</internalNodes>
          <leafValues>
            5.3295171260833740e-01 -1.9536499679088593e-01</leafValues></_>
        <_>
          <internalNodes>
            0 -1 556 -1.3367329956963658e-03</internalNodes>
          <leafValues>
            4.0696376562118530e-01 -2.2297976911067963e-01</leafValues></_>
        <_>
          <internalNodes>
            0 -1 45 -1.3117029448039830e-04</internalNodes>
          <leafValues>
            -4.7741854190826416e-01 2.0382735133171082e-01</leafValues></_>
        <_>
          <internalNodes>
            0 -1 178 -4.8321329057216644e-02</internalNodes>
          <leafValues>
            6.5408211946487427e-01 -1.3785883784294128e-01</leafValues></_>
        <_>
          <internalNodes>
            0 -1 82 -1.1507734656333923e-02</internalNodes>
          <leafValues>
            4.3473529815673828e-01 -1.9888491928577423e-01</leafValues></_>
        <_>
          <internalNodes>
            0 -1 440 -7.4486242374405265e-04</internalNodes>
          <leafValues>
            5.1707315444946289e-01 -1.6896061599254608e-01</leafValues></_>
        <_>
          <internalNodes>
            0 -1 598 1.5859104692935944e-02</internalNodes>
          <leafValues>
            9.7830221056938171e-02 -8.6466681957244873e-01</leafValues></_>
        <_>
          <internalNodes>
            0 -1 799 3.5906006814911962e-04</internalNodes>
          <leafValues>
            -2.4781602621078491e-01 3.6762511730194092e-01</leafValues></_>
        <_>
          <internalNodes>
            0 -1 748 2.7169624445377849e-05</internalNodes>
          <leafValues>
            -2.6357862353324890e-01 3.3795461058616638e-01</leafValues></_>
        <_>
          <internalNodes>
            0 -1 276 -2.2126402705907822e-02</internalNodes>
          <leafValues>
            -8.2843887805938721e-01 1.0136753320693970e-01</leafValues></_>
        <_>
          <internalNodes>
            0 -1 105 2.4059355258941650e-02</internalNodes>
          <leafValues>
            -1.6086715459823608e-01 5.8031290769577026e-01</leafValues></_>
        <_>
          <internalNodes>
            0 -1 506 -1.0213707573711872e-03</internalNodes>
          <leafValues>
            4.9878457188606262e-01 -1.6103945672512054e-01</leafValues></_>
        <_>
          <internalNodes>
            0 -1 365 5.6650410406291485e-03</internalNodes>
          <leafValues>
            -2.3632453382015228e-01 4.3053284287452698e-01</leafValues></_></weakClassifiers></_>
    <!-- stage 4 -->
    <_>
      <maxWeakCount>23</maxWeakCount>
      <stageThreshold>-1.0839203596115112e+00</stageThreshold>
      <weakClassifiers>
        <_>
          <internalNodes>
            0 -1 389 -2.8489655815064907e-03</internalNodes>
          <leafValues>
            4.8845469951629639e-01 -2.6195898652076721e-01</leafValues></_>
        <_>
          <internalNodes>
            0 -1 21 -1.5250489115715027e-02</internalNodes>
          <leafValues>
            4.3228977918624878e-01 -2.3897796869277954e-01</leafValues></_>
        <_>
          <internalNodes>
            0 -1 597 -2.8420355170965195e-02</internalNodes>
          <leafValues>
            4.1324907541275024e-01 -2.6572796702384949e-01</leafValues></_>
        <_>
          <internalNodes>
            0 -1 558 -6.4444676041603088e-02</internalNodes>
          <leafValues>
            5.4246127605438232e-01 -1.9076295197010040e-01</leafValues></_>
        <_>
          <internalNodes>
            0 -1 645 1.0918015614151955e-02</internalNodes>
          <leafValues>
            -1.6709795594215393e-01 6.9707149267196655e-01</leafValues></_>
        <_>
          <internalNodes>
            0 -1 230 -8.7211178615689278e-03</internalNodes>
          <leafValues>
            6.2972337007522583e-01 -1.4737471938133240e-01</leafValues></_>
        <_>
          <internalNodes>
            0 -1 721 -3.1933020800352097e-03</internalNodes>
          <leafValues>
            5.2732479572296143e-01 -1.6731044650077820e-01</leafValues></_>
        <_>
          <internalNodes>
            0 -1 49 1.9586846232414246e-02</internalNodes>
          <leafValues>
            -1.4272479712963104e-01 5.4646545648574829e-01</leafValues></_>
        <_>
          <internalNodes>
            0 -1 551 -4.8200944438576698e-03</internalNodes>
          <leafValues>
            -6.7055445909500122e-01 1.6740547120571136e-01</leafValues></_>
        <_>
          <internalNodes>
            0 -1 479 -5.1359869539737701e-03</internalNodes>
          <leafValues>
            -6.5794658660888672e-01 1.2807847559452057e-01</leafValues></_>
        <_>
          <internalNodes>
            0 -1 621 -8.4595484659075737e-03</internalNodes>
          <leafValues>
            6.1463332176208496e-01 -1.6531577706336975e-01</leafValues></_>
        <_>
          <internalNodes>
            0 -1 147 -2.9174242168664932e-02</internalNodes>
          <leafValues>
            4.8588851094245911e-01 -1.5643939375877380e-01</leafValues></_>
        <_>
          <internalNodes>
            0 -1 332 2.4333444889634848e-03</internalNodes>
          <leafValues>
            -1.8532662093639374e-01 4.7874888777732849e-01</leafValues></_>
        <_>
          <internalNodes>
            0 -1 596 3.3776555210351944e-04</internalNodes>
          <leafValues>
            1.4984557032585144e-01 -6.7248815298080444e-01</leafValues></_>
        <_>
          <internalNodes>
            0 -1 784 -1.1553972726687789e-03</internalNodes>
          <leafValues>
            4.7807183861732483e-01 -2.0841389894485474e-01</leafValues></_>
        <_>
          <internalNodes>
            0 -1 83 9.7241066396236420e-04</internalNodes>
          <leafValues>
            1.6871748864650726e-01 -5.5997967720031738e-01</leafValues></_>
        <_>
          <internalNodes>
            0 -1 431 -1.5202212147414684e-02</internalNodes>
          <leafValues>
            -7.0476621389389038e-01 7.8538417816162109e-02</leafValues></_>
        <_>
          <internalNodes>
            0 -1 490 3.0024540610611439e-03</internalNodes>
          <leafValues>
            -2.6036998629570007e-01 2.9414755105972290e-01</leafValues></_>
        <_>
          <internalNodes>
            0 -1 102 4.4051274657249451e-02</internalNodes>
          <leafValues>
            -1.7985810339450836e-01 4.5262500643730164e-01</leafValues></_>
        <_>
          <internalNodes>
            0 -1 351 1.1434995103627443e-03</internalNodes>
          <leafValues>
            -1.6848747432231903e-01 4.4777202606201172e-01</leafValues></_>
        <_>
          <internalNodes>
            0 -1 681 -3.8505021482706070e-02</internalNodes>
          <leafValues>
            6.9907265901565552e-01 -1.1815660446882248e-01</leafValues></_>
        <_>
          <internalNodes>
            0 -1 349 -8.0553386360406876e-03</internalNodes>
          <leafValues>
            5.8553367853164673e-01 -1.3314466178417206e-01</leafValues></_>
        <_>
          <internalNodes>
            0 -1 926 -1.7877630889415741e-02</internalNodes>
          <leafValues>
            6.4270246028900146e-01 -1.3223077356815338e-01</leafValues></_></weakClassifiers></_>
    <!-- stage 5 -->
    <_>
      <maxWeakCount>17</maxWeakCount>
      <stageThreshold>-9.2909669876098633e-01</stageThreshold>
      <weakClassifiers>
        <_>
          <internalNodes>
            0 -1 853 -1.9758451730012894e-02</internalNodes>
          <leafValues>
            -5.5760365724563599e-01 4.1246291995048523e-01</leafValues></_>
        <_>
          <internalNodes>
            0 -1 363 -2.7350455522537231e-02</internalNodes>
          <leafValues>
            4.8983719944953918e-01 -1.9217626750469208e-01</leafValues></_>
        <_>
          <internalNodes>
            0 -1 505 5.1271537085995078e-04</internalNodes>
          <leafValues>
            -1.9365262985229492e-01 4.6564108133316040e-01</leafValues></_>
        <_>
          <internalNodes>
            0 -1 433 1.3457180466502905e-04</internalNodes>
          <leafValues>
            -2.0580555498600006e-01 4.4798421859741211e-01</leafValues></_>
        <_>
          <internalNodes>
            0 -1 635 3.1316711101680994e-04</internalNodes>
          <leafValues>
            -1.6554000973701477e-01 5.1894819736480713e-01</leafValues></_>
        <_>
          <internalNodes>
            0 -1 609 -4.7084118705242872e-04</internalNodes>
          <leafValues>
            4.6490892767906189e-01 -2.1095082163810730e-01</leafValues></_>
        <_>
          <internalNodes>
            0 -1 370 1.7222888767719269e-02</internalNodes>
          <leafValues>
            1.4836974442005157e-01 -6.1211276054382324e-01</leafValues></_>
        <_>
          <internalNodes>
            0 -1 353 -2.8418039903044701e-02</internalNodes>
          <leafValues>
            -7.2804784774780273e-01 9.8593756556510925e-02</leafValues></_>
        <_>
          <internalNodes>
            0 -1 241 4.4609475298784673e-04</internalNodes>
          <leafValues>
            -2.2531151771545410e-01 4.6074432134628296e-01</leafValues></_>
        <_>
          <internalNodes>
            0 -1 617 -2.7678539045155048e-03</internalNodes>
          <leafValues>
            4.3856650590896606e-01 -1.7720498144626617e-01</leafValues></_>
        <_>
          <internalNodes>
            0 -1 533 9.9956057965755463e-03</internalNodes>
          <leafValues>
            -1.7335467040538788e-01 5.2702891826629639e-01</leafValues></_>
        <_>
          <internalNodes>
            0 -1 141 -3.0698925256729126e-02</internalNodes>
          <leafValues>
            -6.1639124155044556e-01 1.7107358574867249e-01</leafValues></_>
        <_>
          <internalNodes>
            0 -1 800 -1.8747861031442881e-04</internalNodes>
          <leafValues>
            4.8566919565200806e-01 -2.3611654341220856e-01</leafValues></_>
        <_>
          <internalNodes>
            0 -1 399 -4.9536873120814562e-04</internalNodes>
          <leafValues>
            4.8555776476860046e-01 -1.7310698330402374e-01</leafValues></_>
        <_>
          <internalNodes>
            0 -1 820 -4.2779723298735917e-04</internalNodes>
          <leafValues>
            4.6551176905632019e-01 -1.9628565013408661e-01</leafValues></_>
        <_>
          <internalNodes>
            0 -1 461 -1.4278315007686615e-02</internalNodes>
          <leafValues>
            -8.8506257534027100e-01 1.1951559036970139e-01</leafValues></_>
        <_>
          <internalNodes>
            0 -1 7 -1.2714276090264320e-03</internalNodes>
          <leafValues>
            3.5040199756622314e-01 -2.5829699635505676e-01</leafValues></_></weakClassifiers></_>
    <!-- stage 6 -->
    <_>
      <maxWeakCount>26</maxWeakCount>
      <stageThreshold>-8.7323534488677979e-01</stageThreshold>
      <weakClassifiers>
        <_>
          <internalNodes>
            0 -1 720 -1.3730553910136223e-03</internalNodes>
          <leafValues>
            4.3914473056793213e-01 -2.8366762399673462e-01</leafValues></_>
        <_>
          <internalNodes>
            0 -1 742 -2.4481296539306641e-02</internalNodes>
          <leafValues>
            -5.2163785696029663e-01 1.7973600327968597e-01</leafValues></_>
        <_>
          <internalNodes>
            0 -1 960 6.5162437967956066e-03</internalNodes>
          <leafValues>
            -1.4073227345943451e-01 5.0876003503799438e-01</leafValues></_>
        <_>
          <internalNodes>
            0 -1 616 -1.0866260156035423e-02</internalNodes>
          <leafValues>
            -6.6942429542541504e-01 9.6303179860115051e-02</leafValues></_>
        <_>
          <internalNodes>
            0 -1 698 1.0941836517304182e-03</internalNodes>
          <leafValues>
            -1.7258465290069580e-01 4.2075166106224060e-01</leafValues></_>
        <_>
          <internalNodes>
            0 -1 700 -7.1718858089298010e-04</internalNodes>
          <leafValues>
            4.5410728454589844e-01 -1.7224827408790588e-01</leafValues></_>
        <_>
          <internalNodes>
            0 -1 381 -3.2584495842456818e-02</internalNodes>
          <leafValues>
            6.7521816492080688e-01 -1.1784639209508896e-01</leafValues></_>
        <_>
          <internalNodes>
            0 -1 177 -2.6292001828551292e-02</internalNodes>
          <leafValues>
            5.7392150163650513e-01 -1.4769795536994934e-01</leafValues></_>
        <_>
          <internalNodes>
            0 -1 317 -1.6498684883117676e-02</internalNodes>
          <leafValues>
            -8.2338166236877441e-01 1.1902649700641632e-01</leafValues></_>
        <_>
          <internalNodes>
            0 -1 334 3.6002912092953920e-03</internalNodes>
          <leafValues>
            -1.3861343264579773e-01 6.1137944459915161e-01</leafValues></_>
        <_>
          <internalNodes>
            0 -1 434 -6.4232358708977699e-03</internalNodes>
          <leafValues>
            4.7906246781349182e-01 -1.4386035501956940e-01</leafValues></_>
        <_>
          <internalNodes>
            0 -1 817 -2.2698609158396721e-02</internalNodes>
          <leafValues>
            7.7065855264663696e-01 -9.2592336237430573e-02</leafValues></_>
        <_>
          <internalNodes>
            0 -1 770 -2.7603942900896072e-02</internalNodes>
          <leafValues>
            5.9158432483673096e-01 -1.1233316361904144e-01</leafValues></_>
        <_>
          <internalNodes>
            0 -1 289 3.5252613015472889e-03</internalNodes>
          <leafValues>
            1.4450222253799438e-01 -5.1800608634948730e-01</leafValues></_>
        <_>
          <internalNodes>
            0 -1 474 -5.0534844398498535e-02</internalNodes>
          <leafValues>
            -6.7682075500488281e-01 1.0002388805150986e-01</leafValues></_>
        <_>
          <internalNodes>
            0 -1 950 -1.1901615187525749e-02</internalNodes>
          <leafValues>
            6.4637410640716553e-01 -1.3752324879169464e-01</leafValues></_>
        <_>
          <internalNodes>
            0 -1 874 -4.8681057989597321e-02</internalNodes>
          <leafValues>
            7.8285652399063110e-01 -6.7030854523181915e-02</leafValues></_>
        <_>
          <internalNodes>
            0 -1 181 6.4333062618970871e-03</internalNodes>
          <leafValues>
            -1.3727498054504395e-01 4.8965877294540405e-01</leafValues></_>
        <_>
          <internalNodes>
            0 -1 756 -5.9798518195748329e-03</internalNodes>
          <leafValues>
            6.0197925567626953e-01 -1.1076387017965317e-01</leafValues></_>
        <_>
          <internalNodes>
            0 -1 753 6.9728872040286660e-04</internalNodes>
          <leafValues>
            -1.3761956989765167e-01 5.1529920101165771e-01</leafValues></_>
        <_>
          <internalNodes>
            0 -1 326 4.1715842671692371e-03</internalNodes>
          <leafValues>
            1.4091512560844421e-01 -5.4434484243392944e-01</leafValues></_>
        <_>
          <internalNodes>
            0 -1 723 -6.2655159272253513e-03</internalNodes>
          <leafValues>
            -7.0033568143844604e-01 9.2318914830684662e-02</leafValues></_>
        <_>
          <internalNodes>
            0 -1 320 2.4317507632076740e-03</internalNodes>
          <leafValues>
            -2.0325906574726105e-01 4.1499856114387512e-01</leafValues></_>
        <_>
          <internalNodes>
            0 -1 671 4.5173044782131910e-04</internalNodes>
          <leafValues>
            -1.6937932372093201e-01 4.2733678221702576e-01</leafValues></_>
        <_>
          <internalNodes>
            0 -1 694 7.9448684118688107e-04</internalNodes>
          <leafValues>
            -2.0562024414539337e-01 3.9720410108566284e-01</leafValues></_>
        <_>
          <internalNodes>
            0 -1 563 -4.7539500519633293e-03</internalNodes>
          <leafValues>
            5.1538211107254028e-01 -1.4340028166770935e-01</leafValues></_></weakClassifiers></_>
    <!-- stage 7 -->
    <_>
      <maxWeakCount>30</maxWeakCount>
      <stageThreshold>-1.2603636980056763e+00</stageThreshold>
      <weakClassifiers>
        <_>
          <internalNodes>
            0 -1 466 -2.9302458278834820e-04</internalNodes>
          <leafValues>
            -4.7524753212928772e-01 3.8958179950714111e-01</leafValues></_>
        <_>
          <internalNodes>
            0 -1 138 1.2405030429363251e-02</internalNodes>
          <leafValues>
            -4.9266704916954041e-01 1.7674663662910461e-01</leafValues></_>
        <_>
          <internalNodes>
            0 -1 891 2.2738237748853862e-04</internalNodes>
          <leafValues>
            1.4489755034446716e-01 -5.3775167465209961e-01</leafValues></_>
        <_>
          <internalNodes>
            0 -1 106 -1.8204614520072937e-01</internalNodes>
          <leafValues>
            -8.3016330003738403e-01 9.6891961991786957e-02</leafValues></_>
        <_>
          <internalNodes>
            0 -1 272 -1.4977626502513885e-01</internalNodes>
          <leafValues>
            6.1994600296020508e-01 -1.4531551301479340e-01</leafValues></_>
        <_>
          <internalNodes>
            0 -1 360 -1.6524244099855423e-02</internalNodes>
          <leafValues>
            6.8838953971862793e-01 -1.3354298472404480e-01</leafValues></_>
        <_>
          <internalNodes>
            0 -1 149 2.5932886637747288e-04</internalNodes>
          <leafValues>
            1.8073287606239319e-01 -4.6003419160842896e-01</leafValues></_>
        <_>
          <internalNodes>
            0 -1 60 4.0394321084022522e-02</internalNodes>
          <leafValues>
            -1.6042244434356689e-01 4.3333083391189575e-01</leafValues></_>
        <_>
          <internalNodes>
            0 -1 496 -2.3972062626853585e-04</internalNodes>
          <leafValues>
            -5.9939342737197876e-01 1.2494413554668427e-01</leafValues></_>
        <_>
          <internalNodes>
            0 -1 394 2.6584260631352663e-03</internalNodes>
          <leafValues>
            -2.0038384199142456e-01 3.7308338284492493e-01</leafValues></_>
        <_>
          <internalNodes>
            0 -1 17 3.0109629733487964e-04</internalNodes>
          <leafValues>
            1.8546457588672638e-01 -3.9588969945907593e-01</leafValues></_>
        <_>
          <internalNodes>
            0 -1 651 -2.6199035346508026e-04</internalNodes>
          <leafValues>
            -4.6022075414657593e-01 1.5177148580551147e-01</leafValues></_>
        <_>
          <internalNodes>
            0 -1 715 -2.4859015829861164e-03</internalNodes>
          <leafValues>
            3.3389753103256226e-01 -2.2213245928287506e-01</leafValues></_>
        <_>
          <internalNodes>
            0 -1 573 -1.6254629939794540e-02</internalNodes>
          <leafValues>
            6.6790938377380371e-01 -1.2298402190208435e-01</leafValues></_>
        <_>
          <internalNodes>
            0 -1 668 -7.9641985939815640e-04</internalNodes>
          <leafValues>
            5.4945170879364014e-01 -1.1837965995073318e-01</leafValues></_>
        <_>
          <internalNodes>
            0 -1 650 3.6617426667362452e-04</internalNodes>
          <leafValues>
            1.8366396427154541e-01 -4.0368854999542236e-01</leafValues></_>
        <_>
          <internalNodes>
            0 -1 210 1.9536894978955388e-04</internalNodes>
          <leafValues>
            1.5631406009197235e-01 -3.9902326464653015e-01</leafValues></_>
        <_>
          <internalNodes>
            0 -1 612 3.1383798923343420e-03</internalNodes>
          <leafValues>
            -1.3127653300762177e-01 5.3706985712051392e-01</leafValues></_>
        <_>
          <internalNodes>
            0 -1 512 2.2273845970630646e-03</internalNodes>
          <leafValues>
            -2.0891332626342773e-01 3.4955689311027527e-01</leafValues></_>
        <_>
          <internalNodes>
            0 -1 740 -2.1148288622498512e-02</internalNodes>
          <leafValues>
            -6.6863930225372314e-01 1.1485933512449265e-01</leafValues></_>
        <_>
          <internalNodes>
            0 -1 366 -5.2412878721952438e-03</internalNodes>
          <leafValues>
            4.6959269046783447e-01 -1.5827378630638123e-01</leafValues></_>
        <_>
          <internalNodes>
            0 -1 371 -1.3465713709592819e-03</internalNodes>
          <leafValues>
            4.1653662919998169e-01 -1.9361378252506256e-01</leafValues></_>
        <_>
          <internalNodes>
            0 -1 516 -1.9863070920109749e-03</internalNodes>
          <leafValues>
            -5.8951473236083984e-01 1.4227592945098877e-01</leafValues></_>
        <_>
          <internalNodes>
            0 -1 456 1.2546079233288765e-03</internalNodes>
          <leafValues>
            -2.3248875141143799e-01 3.2052317261695862e-01</leafValues></_>
        <_>
          <internalNodes>
            0 -1 769 1.3075284659862518e-03</internalNodes>
          <leafValues>
            -1.7524982988834381e-01 4.0690666437149048e-01</leafValues></_>
        <_>
          <internalNodes>
            0 -1 707 -1.5280506340786815e-04</internalNodes>
          <leafValues>
            -5.0262850522994995e-01 1.4692243933677673e-01</leafValues></_>
        <_>
          <internalNodes>
            0 -1 870 1.6924971714615822e-03</internalNodes>
          <leafValues>
            -1.1072605103254318e-01 7.1123456954956055e-01</leafValues></_>
        <_>
          <internalNodes>
            0 -1 158 -2.9929034411907196e-02</internalNodes>
          <leafValues>
            4.2000919580459595e-01 -1.5207582712173462e-01</leafValues></_>
        <_>
          <internalNodes>
            0 -1 648 -1.0868548415601254e-03</internalNodes>
          <leafValues>
            -6.1797386407852173e-01 1.1573316901922226e-01</leafValues></_>
        <_>
          <internalNodes>
            0 -1 632 -2.7139312587678432e-03</internalNodes>
          <leafValues>
            4.1523358225822449e-01 -1.9410698115825653e-01</leafValues></_></weakClassifiers></_>
    <!-- stage 8 -->
    <_>
      <maxWeakCount>28</maxWeakCount>
      <stageThreshold>-1.1057696342468262e+00</stageThreshold>
      <weakClassifiers>
        <_>
          <internalNodes>
            0 -1 168 6.3477568328380585e-03</internalNodes>
          <leafValues>
            -4.3518519401550293e-01 3.9214232563972473e-01</leafValues></_>
        <_>
          <internalNodes>
            0 -1 916 -3.0567577108740807e-02</internalNodes>
          <leafValues>
            6.4537644386291504e-01 -1.2022449821233749e-01</leafValues></_>
        <_>
          <internalNodes>
            0 -1 565 3.1087021343410015e-03</internalNodes>
          <leafValues>
            1.4878655970096588e-01 -6.2496149539947510e-01</leafValues></_>
        <_>
          <internalNodes>
            0 -1 16 -1.8739830702543259e-02</internalNodes>
          <leafValues>
            4.8977544903755188e-01 -1.6193158924579620e-01</leafValues></_>
        <_>
          <internalNodes>
            0 -1 594 -1.7042373074218631e-03</internalNodes>
          <leafValues>
            -6.2173610925674438e-01 1.1362913250923157e-01</leafValues></_>
        <_>
          <internalNodes>
            0 -1 446 -1.0199563577771187e-02</internalNodes>
          <leafValues>
            5.8982878923416138e-01 -1.3090457022190094e-01</leafValues></_>
        <_>
          <internalNodes>
            0 -1 503 1.6538172960281372e-02</internalNodes>
          <leafValues>
            -1.2877610325813293e-01 6.1928999423980713e-01</leafValues></_>
        <_>
          <internalNodes>
            0 -1 137 1.8095448613166809e-02</internalNodes>
          <leafValues>
            -1.1475459486246109e-01 5.9909439086914062e-01</leafValues></_>
        <_>
          <internalNodes>
            0 -1 585 -2.1138689480721951e-03</internalNodes>
          <leafValues>
            5.5511617660522461e-01 -1.0973458737134933e-01</leafValues></_>
        <_>
          <internalNodes>
            0 -1 204 -5.3244787268340588e-03</internalNodes>
          <leafValues>
            4.4030675292015076e-01 -1.5226727724075317e-01</leafValues></_>
        <_>
          <internalNodes>
            0 -1 716 1.6289560124278069e-02</internalNodes>
          <leafValues>
            1.4047835767269135e-01 -4.9951052665710449e-01</leafValues></_>
        <_>
          <internalNodes>
            0 -1 568 4.1680151480250061e-04</internalNodes>
          <leafValues>
            -1.5904724597930908e-01 4.2171213030815125e-01</leafValues></_>
        <_>
          <internalNodes>
            0 -1 175 4.9003571271896362e-02</internalNodes>
          <leafValues>
            -1.5539781749248505e-01 5.5314785242080688e-01</leafValues></_>
        <_>
          <internalNodes>
            0 -1 869 1.0809337254613638e-03</internalNodes>
          <leafValues>
            -1.3836932182312012e-01 5.0820279121398926e-01</leafValues></_>
        <_>
          <internalNodes>
            0 -1 629 2.2881491167936474e-04</internalNodes>
          <leafValues>
            -2.7449992299079895e-01 2.5569796562194824e-01</leafValues></_>
        <_>
          <internalNodes>
            0 -1 813 5.4617685964331031e-04</internalNodes>
          <leafValues>
            -1.7285302281379700e-01 3.9335992932319641e-01</leafValues></_>
        <_>
          <internalNodes>
            0 -1 915 -2.1631564595736563e-04</internalNodes>
          <leafValues>
            -3.9581212401390076e-01 1.8388807773590088e-01</leafValues></_>
        <_>
          <internalNodes>
            0 -1 662 -3.4071346744894981e-03</internalNodes>
          <leafValues>
            -7.2525274753570557e-01 7.8722417354583740e-02</leafValues></_>
        <_>
          <internalNodes>
            0 -1 798 4.4219091068953276e-04</internalNodes>
          <leafValues>
            -2.3479077219963074e-01 2.8665217757225037e-01</leafValues></_>
        <_>
          <internalNodes>
            0 -1 666 7.5114155188202858e-03</internalNodes>
          <leafValues>
            1.0141106694936752e-01 -7.6540195941925049e-01</leafValues></_>
        <_>
          <internalNodes>
            0 -1 706 -2.4496901780366898e-02</internalNodes>
          <leafValues>
            4.2738515138626099e-01 -1.6864620149135590e-01</leafValues></_>
        <_>
          <internalNodes>
            0 -1 481 5.2591217681765556e-03</internalNodes>
          <leafValues>
            2.1699848771095276e-01 -3.4568375349044800e-01</leafValues></_>
        <_>
          <internalNodes>
            0 -1 571 -2.5913786143064499e-02</internalNodes>
          <leafValues>
            -7.7066111564636230e-01 8.6275503039360046e-02</leafValues></_>
        <_>
          <internalNodes>
            0 -1 12 1.3953977031633258e-04</internalNodes>
          <leafValues>
            1.8496783077716827e-01 -3.6410313844680786e-01</leafValues></_>
        <_>
          <internalNodes>
            0 -1 847 3.0185666400939226e-04</internalNodes>
          <leafValues>
            -1.5956559777259827e-01 4.3728399276733398e-01</leafValues></_>
        <_>
          <internalNodes>
            0 -1 134 -1.0213548317551613e-02</internalNodes>
          <leafValues>
            4.5293727517127991e-01 -1.4510534703731537e-01</leafValues></_>
        <_>
          <internalNodes>
            0 -1 238 2.5870560202747583e-03</internalNodes>
          <leafValues>
            -1.3251248002052307e-01 4.7988742589950562e-01</leafValues></_>
        <_>
          <internalNodes>
            0 -1 838 -7.1699414402246475e-03</internalNodes>
          <leafValues>
            3.0951914191246033e-01 -2.2404968738555908e-01</leafValues></_></weakClassifiers></_>
    <!-- stage 9 -->
    <_>
      <maxWeakCount>37</maxWeakCount>
      <stageThreshold>-1.1803362369537354e+00</stageThreshold>
      <weakClassifiers>
        <_>
          <internalNodes>
            0 -1 940 -9.6249580383300781e-03</internalNodes>
          <leafValues>
            6.8161433935165405e-01 1.1706881225109100e-01</leafValues></_>
        <_>
          <internalNodes>
            0 -1 53 2.0467132329940796e-02</internalNodes>
          <leafValues>
            -2.5484529137611389e-01 2.7101737260818481e-01</leafValues></_>
        <_>
          <internalNodes>
            0 -1 575 -9.3701407313346863e-03</internalNodes>
          <leafValues>
            6.3480371236801147e-01 -9.0727657079696655e-02</leafValues></_>
        <_>
          <internalNodes>
            0 -1 538 5.8275908231735229e-03</internalNodes>
          <leafValues>
            -2.0776715874671936e-01 3.8558197021484375e-01</leafValues></_>
        <_>
          <internalNodes>
            0 -1 283 2.8129840269684792e-02</internalNodes>
          <leafValues>
            1.3421615958213806e-01 -5.6626570224761963e-01</leafValues></_>
        <_>
          <internalNodes>
            0 -1 352 1.6945060342550278e-03</internalNodes>
          <leafValues>
            -2.6785427331924438e-01 2.4150748550891876e-01</leafValues></_>
        <_>
          <internalNodes>
            0 -1 611 -1.7941413680091500e-03</internalNodes>
          <leafValues>
            3.9389616250991821e-01 -1.8541538715362549e-01</leafValues></_>
        <_>
          <internalNodes>
            0 -1 610 5.6269823107868433e-04</internalNodes>
          <leafValues>
            -2.3302353918552399e-01 3.3083042502403259e-01</leafValues></_>
        <_>
          <internalNodes>
            0 -1 735 -1.4180607162415981e-02</internalNodes>
          <leafValues>
            5.6844115257263184e-01 -1.2078105658292770e-01</leafValues></_>
        <_>
          <internalNodes>
            0 -1 407 1.9373297691345215e-02</internalNodes>
          <leafValues>
            1.2863083183765411e-01 -5.8573997020721436e-01</leafValues></_>
        <_>
          <internalNodes>
            0 -1 737 3.6071729846298695e-03</internalNodes>
          <leafValues>
            -1.6884259879589081e-01 4.5856755971908569e-01</leafValues></_>
        <_>
          <internalNodes>
            0 -1 743 2.2445635870099068e-02</internalNodes>
          <leafValues>
            1.1734840273857117e-01 -6.6891413927078247e-01</leafValues></_>
        <_>
          <internalNodes>
            0 -1 422 2.7472414076328278e-03</internalNodes>
          <leafValues>
            -2.0855656266212463e-01 3.3964306116104126e-01</leafValues></_>
        <_>
          <internalNodes>
            0 -1 341 2.7726015076041222e-02</internalNodes>
          <leafValues>
            9.1632135212421417e-02 -7.1245634555816650e-01</leafValues></_>
        <_>
          <internalNodes>
            0 -1 790 -3.1235924689099193e-04</internalNodes>
          <leafValues>
            3.8424116373062134e-01 -1.6512197256088257e-01</leafValues></_>
        <_>
          <internalNodes>
            0 -1 796 1.2297860812395811e-03</internalNodes>
          <leafValues>
            -1.2216284871101379e-01 4.9976587295532227e-01</leafValues></_>
        <_>
          <internalNodes>
            0 -1 132 2.4664541706442833e-02</internalNodes>
          <leafValues>
            -1.5551388263702393e-01 4.3541127443313599e-01</leafValues></_>
        <_>
          <internalNodes>
            0 -1 641 -3.2047373242676258e-03</internalNodes>
          <leafValues>
            3.4211570024490356e-01 -2.2702214121818542e-01</leafValues></_>
        <_>
          <internalNodes>
            0 -1 530 -9.7161317244172096e-03</internalNodes>
          <leafValues>
            4.9744287133216858e-01 -1.2836781144142151e-01</leafValues></_>
        <_>
          <internalNodes>
            0 -1 35 -3.1206019222736359e-02</internalNodes>
          <leafValues>
            4.9677684903144836e-01 -1.2921383976936340e-01</leafValues></_>
        <_>
          <internalNodes>
            0 -1 643 -3.6441354313865304e-04</internalNodes>
          <leafValues>
            -6.3428026437759399e-01 1.0131904482841492e-01</leafValues></_>
        <_>
          <internalNodes>
            0 -1 139 -1.4020255766808987e-03</internalNodes>
          <leafValues>
            6.0071474313735962e-01 -1.2110352516174316e-01</leafValues></_>
        <_>
          <internalNodes>
            0 -1 167 -5.7447943836450577e-03</internalNodes>
          <leafValues>
            -5.8719825744628906e-01 1.3157579302787781e-01</leafValues></_>
        <_>
          <internalNodes>
            0 -1 752 4.4666149187833071e-04</internalNodes>
          <leafValues>
            -2.3222355544567108e-01 2.8966358304023743e-01</leafValues></_>
        <_>
          <internalNodes>
            0 -1 810 1.7382107907906175e-03</internalNodes>
          <leafValues>
            -1.9039694964885712e-01 3.4929168224334717e-01</leafValues></_>
        <_>
          <internalNodes>
            0 -1 703 -6.1344204004853964e-04</internalNodes>
          <leafValues>
            3.6888194084167480e-01 -1.6956159472465515e-01</leafValues></_>
        <_>
          <internalNodes>
            0 -1 438 1.4111213386058807e-02</internalNodes>
          <leafValues>
            1.2980458140373230e-01 -5.8326369524002075e-01</leafValues></_>
        <_>
          <internalNodes>
            0 -1 730 1.7812412988860160e-04</internalNodes>
          <leafValues>
            -2.0169271528720856e-01 3.3260211348533630e-01</leafValues></_>
        <_>
          <internalNodes>
            0 -1 0 2.2014934802427888e-04</internalNodes>
          <leafValues>
            1.3121327757835388e-01 -5.1374459266662598e-01</leafValues></_>
        <_>
          <internalNodes>
            0 -1 115 4.3470337986946106e-02</internalNodes>
          <leafValues>
            -1.1040972918272018e-01 6.7846935987472534e-01</leafValues></_>
        <_>
          <internalNodes>
            0 -1 685 -2.5840284070000052e-04</internalNodes>
          <leafValues>
            3.2366615533828735e-01 -1.8309453129768372e-01</leafValues></_>
        <_>
          <internalNodes>
            0 -1 714 5.2978360326960683e-04</internalNodes>
          <leafValues>
            1.0779155045747757e-01 -5.6973534822463989e-01</leafValues></_>
        <_>
          <internalNodes>
            0 -1 19 -2.0275199785828590e-03</internalNodes>
          <leafValues>
            3.9479571580886841e-01 -1.8029581010341644e-01</leafValues></_>
        <_>
          <internalNodes>
            0 -1 155 -2.7142895851284266e-03</internalNodes>
          <leafValues>
            -4.7755476832389832e-01 1.4982587099075317e-01</leafValues></_>
        <_>
          <internalNodes>
            0 -1 314 7.0515284314751625e-03</internalNodes>
          <leafValues>
            9.0124495327472687e-02 -6.5196889638900757e-01</leafValues></_>
        <_>
          <internalNodes>
            0 -1 572 -3.6049604415893555e-02</internalNodes>
          <leafValues>
            -7.2428667545318604e-01 7.6425045728683472e-02</leafValues></_>
        <_>
          <internalNodes>
            0 -1 657 -2.6685724151320755e-04</internalNodes>
          <leafValues>
            3.6883071064949036e-01 -1.7682607471942902e-01</leafValues></_></weakClassifiers></_>
    <!-- stage 10 -->
    <_>
      <maxWeakCount>29</maxWeakCount>
      <stageThreshold>-8.7811386585235596e-01</stageThreshold>
      <weakClassifiers>
        <_>
          <internalNodes>
            0 -1 24 -8.3463080227375031e-03</internalNodes>
          <leafValues>
            5.7227140665054321e-01 5.2987597882747650e-02</leafValues></_>
        <_>
          <internalNodes>
            0 -1 201 9.1482093557715416e-03</internalNodes>
          <leafValues>
            -3.2923361659049988e-01 2.0057609677314758e-01</leafValues></_>
        <_>
          <internalNodes>
            0 -1 517 -6.0574179515242577e-03</internalNodes>
          <leafValues>
            -5.6419903039932251e-01 1.0543327033519745e-01</leafValues></_>
        <_>
          <internalNodes>
            0 -1 611 -2.7123321779072285e-03</internalNodes>
          <leafValues>
            4.6919903159141541e-01 -1.2791569530963898e-01</leafValues></_>
        <_>
          <internalNodes>
            0 -1 605 2.1245798561722040e-03</internalNodes>
          <leafValues>
            -1.8938457965850830e-01 4.3310189247131348e-01</leafValues></_>
        <_>
          <internalNodes>
            0 -1 677 -5.4847006686031818e-04</internalNodes>
          <leafValues>
            -6.2950217723846436e-01 1.0021249949932098e-01</leafValues></_>
        <_>
          <internalNodes>
            0 -1 608 8.5453093051910400e-03</internalNodes>
          <leafValues>
            6.1546202749013901e-02 -8.5799497365951538e-01</leafValues></_>
        <_>
          <internalNodes>
            0 -1 6 7.4126810068264604e-04</internalNodes>
          <leafValues>
            9.5768757164478302e-02 -4.8814728856086731e-01</leafValues></_>
        <_>
          <internalNodes>
            0 -1 246 -1.1341841891407967e-02</internalNodes>
          <leafValues>
            5.1116925477981567e-01 -9.4894573092460632e-02</leafValues></_>
        <_>
          <internalNodes>
            0 -1 229 5.4676132276654243e-03</internalNodes>
          <leafValues>
            -1.5078589320182800e-01 4.3436861038208008e-01</leafValues></_>
        <_>
          <internalNodes>
            0 -1 625 9.6414759755134583e-03</internalNodes>
          <leafValues>
            1.1292121559381485e-01 -6.3488560914993286e-01</leafValues></_>
        <_>
          <internalNodes>
            0 -1 615 2.4694688618183136e-03</internalNodes>
          <leafValues>
            -1.2375639379024506e-01 5.4401266574859619e-01</leafValues></_>
        <_>
          <internalNodes>
            0 -1 604 -2.1109769586473703e-03</internalNodes>
          <leafValues>
            4.2164325714111328e-01 -1.2451437860727310e-01</leafValues></_>
        <_>
          <internalNodes>
            0 -1 718 -2.2721935063600540e-02</internalNodes>
          <leafValues>
            -8.6835092306137085e-01 4.9537237733602524e-02</leafValues></_>
        <_>
          <internalNodes>
            0 -1 27 -1.8722457753028721e-05</internalNodes>
          <leafValues>
            2.2078405320644379e-01 -2.7682974934577942e-01</leafValues></_>
        <_>
          <internalNodes>
            0 -1 607 2.4357954971492290e-03</internalNodes>
          <leafValues>
            1.1617141216993332e-01 -6.0583055019378662e-01</leafValues></_>
        <_>
          <internalNodes>
            0 -1 379 -2.8182729147374630e-03</internalNodes>
          <leafValues>
            3.1469565629959106e-01 -1.9523254036903381e-01</leafValues></_>
        <_>
          <internalNodes>
            0 -1 532 6.2505452660843730e-04</internalNodes>
          <leafValues>
            1.0657451301813126e-01 -5.5646097660064697e-01</leafValues></_>
        <_>
          <internalNodes>
            0 -1 801 5.9355588746257126e-05</internalNodes>
          <leafValues>
            -2.3259234428405762e-01 2.6070806384086609e-01</leafValues></_>
        <_>
          <internalNodes>
            0 -1 475 2.1546413190662861e-03</internalNodes>
          <leafValues>
            -1.2545900046825409e-01 5.1640826463699341e-01</leafValues></_>
        <_>
          <internalNodes>
            0 -1 199 -4.2571403086185455e-02</internalNodes>
          <leafValues>
            -7.1976417303085327e-01 1.0649530589580536e-01</leafValues></_>
        <_>
          <internalNodes>
            0 -1 404 4.0983446524478495e-05</internalNodes>
          <leafValues>
            2.0112590491771698e-01 -3.2301199436187744e-01</leafValues></_>
        <_>
          <internalNodes>
            0 -1 395 4.0396424010396004e-03</internalNodes>
          <leafValues>
            -2.0209529995918274e-01 3.2143199443817139e-01</leafValues></_>
        <_>
          <internalNodes>
            0 -1 441 6.0771865537390113e-04</internalNodes>
          <leafValues>
            1.2207239866256714e-01 -5.4019165039062500e-01</leafValues></_>
        <_>
          <internalNodes>
            0 -1 459 -4.4240974821150303e-03</internalNodes>
          <leafValues>
            6.3041388988494873e-01 -1.0983880609273911e-01</leafValues></_>
        <_>
          <internalNodes>
            0 -1 787 -8.6593553423881531e-03</internalNodes>
          <leafValues>
            -5.6674838066101074e-01 1.1486513167619705e-01</leafValues></_>
        <_>
          <internalNodes>
            0 -1 858 1.4379443600773811e-02</internalNodes>
          <leafValues>
            -1.0541798919439316e-01 6.4921188354492188e-01</leafValues></_>
        <_>
          <internalNodes>
            0 -1 882 -8.9456150308251381e-03</internalNodes>
          <leafValues>
            -5.9556907415390015e-01 1.0680120438337326e-01</leafValues></_>
        <_>
          <internalNodes>
            0 -1 448 -6.3832253217697144e-02</internalNodes>
          <leafValues>
            5.7824611663818359e-01 -1.0648376494646072e-01</leafValues></_></weakClassifiers></_>
    <!-- stage 11 -->
    <_>
      <maxWeakCount>32</maxWeakCount>
      <stageThreshold>-8.6444133520126343e-01</stageThreshold>
      <weakClassifiers>
        <_>
          <internalNodes>
            0 -1 896 -1.4741487801074982e-02</internalNodes>
          <leafValues>
            5.8131486177444458e-01 1.0030394792556763e-01</leafValues></_>
        <_>
          <internalNodes>
            0 -1 647 -3.3773103496059775e-04</internalNodes>
          <leafValues>
            -6.0235840082168579e-01 1.1228797584772110e-01</leafValues></_>
        <_>
          <internalNodes>
            0 -1 823 -1.1867268010973930e-02</internalNodes>
          <leafValues>
            4.2677706480026245e-01 -1.2133508175611496e-01</leafValues></_>
        <_>
          <internalNodes>
            0 -1 875 -1.1461410671472549e-02</internalNodes>
          <leafValues>
            5.7444703578948975e-01 -1.2449385970830917e-01</leafValues></_>
        <_>
          <internalNodes>
            0 -1 738 1.4515114016830921e-03</internalNodes>
          <leafValues>
            -8.9185215532779694e-02 4.3077847361564636e-01</leafValues></_>
        <_>
          <internalNodes>
            0 -1 232 1.0891565121710300e-02</internalNodes>
          <leafValues>
            -1.1931562423706055e-01 5.4658728837966919e-01</leafValues></_>
        <_>
          <internalNodes>
            0 -1 209 -5.2589822560548782e-02</internalNodes>
          <leafValues>
            4.1167089343070984e-01 -1.2465918809175491e-01</leafValues></_>
        <_>
          <internalNodes>
            0 -1 772 4.7124153934419155e-04</internalNodes>
          <leafValues>
            -1.3930672407150269e-01 4.1350397467613220e-01</leafValues></_>
        <_>
          <internalNodes>
            0 -1 771 -3.3729706774465740e-04</internalNodes>
          <leafValues>
            4.3247827887535095e-01 -1.7478266358375549e-01</leafValues></_>
        <_>
          <internalNodes>
            0 -1 683 -1.8717899918556213e-02</internalNodes>
          <leafValues>
            -6.6798049211502075e-01 9.0287350118160248e-02</leafValues></_>
        <_>
          <internalNodes>
            0 -1 390 6.9508492015302181e-03</internalNodes>
          <leafValues>
            1.4831241965293884e-01 -3.9761286973953247e-01</leafValues></_>
        <_>
          <internalNodes>
            0 -1 477 4.4150264002382755e-03</internalNodes>
          <leafValues>
            -1.2409686297178268e-01 5.0497496128082275e-01</leafValues></_>
        <_>
          <internalNodes>
            0 -1 401 5.8742836117744446e-03</internalNodes>
          <leafValues>
            -9.3949027359485626e-02 5.0208306312561035e-01</leafValues></_>
        <_>
          <internalNodes>
            0 -1 684 8.6668860167264938e-03</internalNodes>
          <leafValues>
            1.0844951122999191e-01 -5.2089887857437134e-01</leafValues></_>
        <_>
          <internalNodes>
            0 -1 788 3.9283181540668011e-03</internalNodes>
          <leafValues>
            -1.3216760754585266e-01 4.8111432790756226e-01</leafValues></_>
        <_>
          <internalNodes>
            0 -1 644 7.1393232792615891e-04</internalNodes>
          <leafValues>
            1.0607079416513443e-01 -5.3240752220153809e-01</leafValues></_>
        <_>
          <internalNodes>
            0 -1 791 1.1048112064599991e-03</internalNodes>
          <leafValues>
            -1.1234638094902039e-01 5.4333764314651489e-01</leafValues></_>
        <_>
          <internalNodes>
            0 -1 489 1.2439899146556854e-02</internalNodes>
          <leafValues>
            8.2099132239818573e-02 -7.7904021739959717e-01</leafValues></_>
        <_>
          <internalNodes>
            0 -1 673 2.4628750979900360e-03</internalNodes>
          <leafValues>
            -2.0951454341411591e-01 3.0414482951164246e-01</leafValues></_>
        <_>
          <internalNodes>
            0 -1 518 -8.2002091221511364e-04</internalNodes>
          <leafValues>
            -3.3051201701164246e-01 1.7503121495246887e-01</leafValues></_>
        <_>
          <internalNodes>
            0 -1 727 1.9539715722203255e-03</internalNodes>
          <leafValues>
            -1.3227425515651703e-01 4.2544952034950256e-01</leafValues></_>
        <_>
          <internalNodes>
            0 -1 266 2.8586832340806723e-03</internalNodes>
          <leafValues>
            -1.0039117187261581e-01 5.0050157308578491e-01</leafValues></_>
        <_>
          <internalNodes>
            0 -1 842 2.4710237048566341e-03</internalNodes>
          <leafValues>
            -1.3038094341754913e-01 4.4551551342010498e-01</leafValues></_>
        <_>
          <internalNodes>
            0 -1 85 2.4433032376691699e-04</internalNodes>
          <leafValues>
            1.5461371839046478e-01 -4.0085878968238831e-01</leafValues></_>
        <_>
          <internalNodes>
            0 -1 162 6.1023458838462830e-02</internalNodes>
          <leafValues>
            -8.1666372716426849e-02 6.8745911121368408e-01</leafValues></_>
        <_>
          <internalNodes>
            0 -1 68 1.3547308743000031e-02</internalNodes>
          <leafValues>
            -1.5947213768959045e-01 3.7433850765228271e-01</leafValues></_>
        <_>
          <internalNodes>
            0 -1 128 2.1589614916592836e-03</internalNodes>
          <leafValues>
            1.1458170413970947e-01 -5.6211394071578979e-01</leafValues></_>
        <_>
          <internalNodes>
            0 -1 308 -4.4114171760156751e-04</internalNodes>
          <leafValues>
            -5.6572842597961426e-01 9.0647637844085693e-02</leafValues></_>
        <_>
          <internalNodes>
            0 -1 1 7.1626175194978714e-03</internalNodes>
          <leafValues>
            -1.1173714697360992e-01 5.3642600774765015e-01</leafValues></_>
        <_>
          <internalNodes>
            0 -1 618 1.9396503921598196e-03</internalNodes>
          <leafValues>
            -1.4074295759201050e-01 4.1110327839851379e-01</leafValues></_>
        <_>
          <internalNodes>
            0 -1 952 -6.6539054387249053e-05</internalNodes>
          <leafValues>
            -3.3354258537292480e-01 1.8057537078857422e-01</leafValues></_>
        <_>
          <internalNodes>
            0 -1 306 -5.9760361909866333e-03</internalNodes>
          <leafValues>
            -7.2913825511932373e-01 8.3745501935482025e-02</leafValues></_></weakClassifiers></_>
    <!-- stage 12 -->
    <_>
      <maxWeakCount>34</maxWeakCount>
      <stageThreshold>-9.9057316780090332e-01</stageThreshold>
      <weakClassifiers>
        <_>
          <internalNodes>
            0 -1 442 -4.4550024904310703e-04</internalNodes>
          <leafValues>
            -5.3846156597137451e-01 3.6005625128746033e-01</leafValues></_>
        <_>
          <internalNodes>
            0 -1 890 -2.6520057581365108e-03</internalNodes>
          <leafValues>
            3.6363837122917175e-01 -1.2393835186958313e-01</leafValues></_>
        <_>
          <internalNodes>
            0 -1 640 -3.0194271355867386e-02</internalNodes>
          <leafValues>
            6.4008587598800659e-01 -1.2290492653846741e-01</leafValues></_>
        <_>
          <internalNodes>
            0 -1 245 3.6000166088342667e-02</internalNodes>
          <leafValues>
            -1.3266351819038391e-01 5.9650444984436035e-01</leafValues></_>
        <_>
          <internalNodes>
            0 -1 570 -1.3421679614111781e-04</internalNodes>
          <leafValues>
            -4.0485000610351562e-01 1.2617030739784241e-01</leafValues></_>
        <_>
          <internalNodes>
            0 -1 240 6.7855599336326122e-03</internalNodes>
          <leafValues>
            -9.7336441278457642e-02 4.9472332000732422e-01</leafValues></_>
        <_>
          <internalNodes>
            0 -1 400 -4.3838206678628922e-02</internalNodes>
          <leafValues>
            3.2551732659339905e-01 -1.5582449734210968e-01</leafValues></_>
        <_>
          <internalNodes>
            0 -1 775 8.0025369243230671e-05</internalNodes>
          <leafValues>
            -1.8660467863082886e-01 3.1457695364952087e-01</leafValues></_>
        <_>
          <internalNodes>
            0 -1 130 -7.1077374741435051e-03</internalNodes>
          <leafValues>
            4.0988048911094666e-01 -1.2633594870567322e-01</leafValues></_>
        <_>
          <internalNodes>
            0 -1 72 1.4657553285360336e-02</internalNodes>
          <leafValues>
            -1.2872311472892761e-01 4.4606548547744751e-01</leafValues></_>
        <_>
          <internalNodes>
            0 -1 286 -1.2555667199194431e-02</internalNodes>
          <leafValues>
            3.3600515127182007e-01 -1.6859960556030273e-01</leafValues></_>
        <_>
          <internalNodes>
            0 -1 513 -2.6548604946583509e-03</internalNodes>
          <leafValues>
            3.3838641643524170e-01 -1.7317792773246765e-01</leafValues></_>
        <_>
          <internalNodes>
            0 -1 661 -1.2082839384675026e-03</internalNodes>
          <leafValues>
            5.0862205028533936e-01 -1.4674323797225952e-01</leafValues></_>
        <_>
          <internalNodes>
            0 -1 298 -3.7055939435958862e-02</internalNodes>
          <leafValues>
            -6.0175204277038574e-01 1.1262054741382599e-01</leafValues></_>
        <_>
          <internalNodes>
            0 -1 894 -3.7158310413360596e-02</internalNodes>
          <leafValues>
            3.8743147253990173e-01 -1.5282914042472839e-01</leafValues></_>
        <_>
          <internalNodes>
            0 -1 719 8.6343480506911874e-04</internalNodes>
          <leafValues>
            -1.9525404274463654e-01 3.1926262378692627e-01</leafValues></_>
        <_>
          <internalNodes>
            0 -1 883 -3.5611800849437714e-02</internalNodes>
          <leafValues>
            4.4623565673828125e-01 -1.2699460983276367e-01</leafValues></_>
        <_>
          <internalNodes>
            0 -1 964 3.4213854814879596e-04</internalNodes>
          <leafValues>
            9.2355534434318542e-02 -6.7839014530181885e-01</leafValues></_>
        <_>
          <internalNodes>
            0 -1 426 1.8529127119109035e-03</internalNodes>
          <leafValues>
            1.2355183809995651e-01 -4.2917788028717041e-01</leafValues></_>
        <_>
          <internalNodes>
            0 -1 667 2.6913860347121954e-04</internalNodes>
          <leafValues>
            -1.6748453676700592e-01 3.6223497986793518e-01</leafValues></_>
        <_>
          <internalNodes>
            0 -1 64 1.9286455062683672e-04</internalNodes>
          <leafValues>
            1.6467815637588501e-01 -3.7313356995582581e-01</leafValues></_>
        <_>
          <internalNodes>
            0 -1 722 -1.5107646584510803e-02</internalNodes>
          <leafValues>
            -7.8858935832977295e-01 7.1726523339748383e-02</leafValues></_>
        <_>
          <internalNodes>
            0 -1 239 8.2095768302679062e-03</internalNodes>
          <leafValues>
            -1.2458053976297379e-01 5.3168129920959473e-01</leafValues></_>
        <_>
          <internalNodes>
            0 -1 554 5.2239751676097512e-04</internalNodes>
          <leafValues>
            -1.4209288358688354e-01 3.8717219233512878e-01</leafValues></_>
        <_>
          <internalNodes>
            0 -1 88 4.0466763311997056e-04</internalNodes>
          <leafValues>
            1.1466467380523682e-01 -4.8147967457771301e-01</leafValues></_>
        <_>
          <internalNodes>
            0 -1 182 -3.7962831556797028e-02</internalNodes>
          <leafValues>
            -7.1680766344070435e-01 6.8216539919376373e-02</leafValues></_>
        <_>
          <internalNodes>
            0 -1 717 1.6195045318454504e-03</internalNodes>
          <leafValues>
            -1.3931912183761597e-01 4.3522199988365173e-01</leafValues></_>
        <_>
          <internalNodes>
            0 -1 600 -5.9272081125527620e-04</internalNodes>
          <leafValues>
            2.7324187755584717e-01 -1.9544838368892670e-01</leafValues></_>
        <_>
          <internalNodes>
            0 -1 680 1.1734997853636742e-02</internalNodes>
          <leafValues>
            -9.7470141947269440e-02 6.5170609951019287e-01</leafValues></_>
        <_>
          <internalNodes>
            0 -1 66 6.1374932527542114e-01</internalNodes>
          <leafValues>
            -1.1231869459152222e-01 4.3851494789123535e-01</leafValues></_>
        <_>
          <internalNodes>
            0 -1 584 -1.0620974935591221e-03</internalNodes>
          <leafValues>
            3.6870044469833374e-01 -1.6044110059738159e-01</leafValues></_>
        <_>
          <internalNodes>
            0 -1 583 5.4012646432965994e-04</internalNodes>
          <leafValues>
            -1.3460978865623474e-01 4.2384523153305054e-01</leafValues></_>
        <_>
          <internalNodes>
            0 -1 881 5.4587948397966102e-05</internalNodes>
          <leafValues>
            1.9636347889900208e-01 -3.0960777401924133e-01</leafValues></_>
        <_>
          <internalNodes>
            0 -1 384 3.4516130108386278e-03</internalNodes>
          <leafValues>
            -1.3221567869186401e-01 4.7506704926490784e-01</leafValues></_></weakClassifiers></_>
    <!-- stage 13 -->
    <_>
      <maxWeakCount>34</maxWeakCount>
      <stageThreshold>-9.7784715890884399e-01</stageThreshold>
      <weakClassifiers>
        <_>
          <internalNodes>
            0 -1 152 4.7868015244603157e-03</internalNodes>
          <leafValues>
            7.1895428001880646e-02 5.7032459974288940e-01</leafValues></_>
        <_>
          <internalNodes>
            0 -1 973 2.4078013375401497e-03</internalNodes>
          <leafValues>
            -1.1429464071989059e-01 4.8216226696968079e-01</leafValues></_>
        <_>
          <internalNodes>
            0 -1 104 1.1766778305172920e-02</internalNodes>
          <leafValues>
            -1.5925247967243195e-01 4.5558258891105652e-01</leafValues></_>
        <_>
          <internalNodes>
            0 -1 323 -6.4873937517404556e-03</internalNodes>
          <leafValues>
            -5.3311568498611450e-01 1.4056490361690521e-01</leafValues></_>
        <_>
          <internalNodes>
            0 -1 510 1.3648558408021927e-02</internalNodes>
          <leafValues>
            8.7878130376338959e-02 -5.7004141807556152e-01</leafValues></_>
        <_>
          <internalNodes>
            0 -1 944 -9.3740113079547882e-03</internalNodes>
          <leafValues>
            3.9938887953758240e-01 -1.2181961536407471e-01</leafValues></_>
        <_>
          <internalNodes>
            0 -1 941 2.3088727146387100e-02</internalNodes>
          <leafValues>
            -1.4996522665023804e-01 5.0098496675491333e-01</leafValues></_>
        <_>
          <internalNodes>
            0 -1 702 4.2117992416024208e-04</internalNodes>
          <leafValues>
            -1.5378804504871368e-01 3.4030976891517639e-01</leafValues></_>
        <_>
          <internalNodes>
            0 -1 638 4.5795016922056675e-04</internalNodes>
          <leafValues>
            -1.6782696545124054e-01 4.0489166975021362e-01</leafValues></_>
        <_>
          <internalNodes>
            0 -1 528 -1.0879068868234754e-03</internalNodes>
          <leafValues>
            -6.5106350183486938e-01 1.0920869559049606e-01</leafValues></_>
        <_>
          <internalNodes>
            0 -1 967 2.0529294852167368e-03</internalNodes>
          <leafValues>
            9.4421282410621643e-02 -4.9618533253669739e-01</leafValues></_>
        <_>
          <internalNodes>
            0 -1 540 -8.9788780314847827e-04</internalNodes>
          <leafValues>
            3.6639481782913208e-01 -1.5892708301544189e-01</leafValues></_>
        <_>
          <internalNodes>
            0 -1 930 2.3466192185878754e-02</internalNodes>
          <leafValues>
            -9.3631580471992493e-02 5.7414442300796509e-01</leafValues></_>
        <_>
          <internalNodes>
            0 -1 819 -3.1968759139999747e-04</internalNodes>
          <leafValues>
            2.7198588848114014e-01 -1.8572089076042175e-01</leafValues></_>
        <_>
          <internalNodes>
            0 -1 845 2.0073270425200462e-03</internalNodes>
          <leafValues>
            -1.1472945660352707e-01 4.3839573860168457e-01</leafValues></_>
        <_>
          <internalNodes>
            0 -1 125 1.9711637869477272e-03</internalNodes>
          <leafValues>
            -3.5601711273193359e-01 1.7109137773513794e-01</leafValues></_>
        <_>
          <internalNodes>
            0 -1 424 1.2538728304207325e-02</internalNodes>
          <leafValues>
            9.6181005239486694e-02 -7.1331119537353516e-01</leafValues></_>
        <_>
          <internalNodes>
            0 -1 562 1.2756359763443470e-02</internalNodes>
          <leafValues>
            -9.8534747958183289e-02 7.5856542587280273e-01</leafValues></_>
        <_>
          <internalNodes>
            0 -1 595 -1.5603858628310263e-04</internalNodes>
          <leafValues>
            -4.4203060865402222e-01 1.4612737298011780e-01</leafValues></_>
        <_>
          <internalNodes>
            0 -1 884 7.3478452395647764e-04</internalNodes>
          <leafValues>
            -1.7559480667114258e-01 3.4038957953453064e-01</leafValues></_>
        <_>
          <internalNodes>
            0 -1 567 -8.6469035595655441e-03</internalNodes>
          <leafValues>
            3.3140444755554199e-01 -1.6007375717163086e-01</leafValues></_>
        <_>
          <internalNodes>
            0 -1 660 1.1455451603978872e-03</internalNodes>
          <leafValues>
            -1.4124417304992676e-01 3.7350106239318848e-01</leafValues></_>
        <_>
          <internalNodes>
            0 -1 741 2.2908590734004974e-02</internalNodes>
          <leafValues>
            8.5245661437511444e-02 -6.3391023874282837e-01</leafValues></_>
        <_>
          <internalNodes>
            0 -1 135 1.0030296631157398e-02</internalNodes>
          <leafValues>
            -1.8574649095535278e-01 2.8070953488349915e-01</leafValues></_>
        <_>
          <internalNodes>
            0 -1 112 -6.2675244407728314e-04</internalNodes>
          <leafValues>
            3.1433939933776855e-01 -2.0185478031635284e-01</leafValues></_>
        <_>
          <internalNodes>
            0 -1 335 6.3589267665520310e-04</internalNodes>
          <leafValues>
            -1.4990498125553131e-01 3.4085029363632202e-01</leafValues></_>
        <_>
          <internalNodes>
            0 -1 307 -6.5788263455033302e-03</internalNodes>
          <leafValues>
            4.4908472895622253e-01 -1.2942986190319061e-01</leafValues></_>
        <_>
          <internalNodes>
            0 -1 99 -7.6191441621631384e-05</internalNodes>
          <leafValues>
            -3.4174928069114685e-01 1.6219116747379303e-01</leafValues></_>
        <_>
          <internalNodes>
            0 -1 579 5.1324808737263083e-04</internalNodes>
          <leafValues>
            -2.8274714946746826e-01 1.9695807993412018e-01</leafValues></_>
        <_>
          <internalNodes>
            0 -1 402 5.5136883020168170e-05</internalNodes>
          <leafValues>
            -1.7970418930053711e-01 3.1035625934600830e-01</leafValues></_>
        <_>
          <internalNodes>
            0 -1 79 -3.5055764601565897e-04</internalNodes>
          <leafValues>
            -4.0879929065704346e-01 1.2363676726818085e-01</leafValues></_>
        <_>
          <internalNodes>
            0 -1 929 -3.7110578268766403e-03</internalNodes>
          <leafValues>
            3.1666263937950134e-01 -1.7934565246105194e-01</leafValues></_>
        <_>
          <internalNodes>
            0 -1 599 -4.9157981993630528e-04</internalNodes>
          <leafValues>
            -4.1702544689178467e-01 1.3601323962211609e-01</leafValues></_>
        <_>
          <internalNodes>
            0 -1 792 1.2075894046574831e-03</internalNodes>
          <leafValues>
            -1.8151678144931793e-01 3.2877990603446960e-01</leafValues></_></weakClassifiers></_>
    <!-- stage 14 -->
    <_>
      <maxWeakCount>40</maxWeakCount>
      <stageThreshold>-1.0214223861694336e+00</stageThreshold>
      <weakClassifiers>
        <_>
          <internalNodes>
            0 -1 759 -1.3990550301969051e-02</internalNodes>
          <leafValues>
            -2.9090908169746399e-01 3.7100371718406677e-01</leafValues></_>
        <_>
          <internalNodes>
            0 -1 837 1.8700264394283295e-02</internalNodes>
          <leafValues>
            -1.3462355732917786e-01 3.7435925006866455e-01</leafValues></_>
        <_>
          <internalNodes>
            0 -1 154 -1.9459541887044907e-02</internalNodes>
          <leafValues>
            6.5544319152832031e-01 -7.0836842060089111e-02</leafValues></_>
        <_>
          <internalNodes>
            0 -1 28 -9.7512360662221909e-03</internalNodes>
          <leafValues>
            4.1962531208992004e-01 -1.5227024257183075e-01</leafValues></_>
        <_>
          <internalNodes>
            0 -1 251 -1.0073577141156420e-04</internalNodes>
          <leafValues>
            -4.1239151358604431e-01 1.3296362757682800e-01</leafValues></_>
        <_>
          <internalNodes>
            0 -1 471 -2.0263143233023584e-04</internalNodes>
          <leafValues>
            -4.3233251571655273e-01 1.3039752840995789e-01</leafValues></_>
        <_>
          <internalNodes>
            0 -1 80 1.0546889825491235e-04</internalNodes>
          <leafValues>
            1.2422427535057068e-01 -3.7049144506454468e-01</leafValues></_>
        <_>
          <internalNodes>
            0 -1 768 1.5472797676920891e-03</internalNodes>
          <leafValues>
            -1.4360029995441437e-01 3.5919582843780518e-01</leafValues></_>
        <_>
          <internalNodes>
            0 -1 247 8.6812436580657959e-02</internalNodes>
          <leafValues>
            8.4266796708106995e-02 -6.8012124300003052e-01</leafValues></_>
        <_>
          <internalNodes>
            0 -1 860 -4.5170508325099945e-02</internalNodes>
          <leafValues>
            5.5970579385757446e-01 -1.0901930183172226e-01</leafValues></_>
        <_>
          <internalNodes>
            0 -1 423 5.9111751616001129e-03</internalNodes>
          <leafValues>
            -1.7358392477035522e-01 3.2507184147834778e-01</leafValues></_>
        <_>
          <internalNodes>
            0 -1 454 -7.6350225135684013e-03</internalNodes>
          <leafValues>
            5.2975589036941528e-01 -1.2237386405467987e-01</leafValues></_>
        <_>
          <internalNodes>
            0 -1 747 -6.0473452322185040e-04</internalNodes>
          <leafValues>
            1.6473765671253204e-01 -3.9371946454048157e-01</leafValues></_>
        <_>
          <internalNodes>
            0 -1 169 -9.7588472068309784e-02</internalNodes>
          <leafValues>
            5.9396946430206299e-01 -9.5728375017642975e-02</leafValues></_>
        <_>
          <internalNodes>
            0 -1 675 -6.1939130537211895e-03</internalNodes>
          <leafValues>
            3.5041645169258118e-01 -1.4753329753875732e-01</leafValues></_>
        <_>
          <internalNodes>
            0 -1 396 -4.0160943754017353e-03</internalNodes>
          <leafValues>
            -5.7722389698028564e-01 9.2399954795837402e-02</leafValues></_>
        <_>
          <internalNodes>
            0 -1 512 2.2926349192857742e-03</internalNodes>
          <leafValues>
            -1.7522318661212921e-01 3.0474263429641724e-01</leafValues></_>
        <_>
          <internalNodes>
            0 -1 754 7.1278813993558288e-04</internalNodes>
          <leafValues>
            -1.4601810276508331e-01 3.7743884325027466e-01</leafValues></_>
        <_>
          <internalNodes>
            0 -1 414 2.3206826299428940e-03</internalNodes>
          <leafValues>
            -1.5034559369087219e-01 3.2988512516021729e-01</leafValues></_>
        <_>
          <internalNodes>
            0 -1 163 -4.1509494185447693e-03</internalNodes>
          <leafValues>
            3.6622115969657898e-01 -1.3667024672031403e-01</leafValues></_>
        <_>
          <internalNodes>
            0 -1 531 -6.4067961648106575e-04</internalNodes>
          <leafValues>
            -5.1142799854278564e-01 9.8522871732711792e-02</leafValues></_>
        <_>
          <internalNodes>
            0 -1 578 -1.7847340495791286e-04</internalNodes>
          <leafValues>
            3.3799710869789124e-01 -1.5384486317634583e-01</leafValues></_>
        <_>
          <internalNodes>
            0 -1 36 2.6714589446783066e-02</internalNodes>
          <leafValues>
            -9.1739133000373840e-02 6.0047662258148193e-01</leafValues></_>
        <_>
          <internalNodes>
            0 -1 937 -5.2111828699707985e-04</internalNodes>
          <leafValues>
            -5.1821243762969971e-01 1.1950620263814926e-01</leafValues></_>
        <_>
          <internalNodes>
            0 -1 279 4.0901806205511093e-03</internalNodes>
          <leafValues>
            -1.1100199818611145e-01 5.2377790212631226e-01</leafValues></_>
        <_>
          <internalNodes>
            0 -1 174 -3.4109376370906830e-02</internalNodes>
          <leafValues>
            5.6062346696853638e-01 -9.0315386652946472e-02</leafValues></_>
        <_>
          <internalNodes>
            0 -1 77 7.0639525074511766e-04</internalNodes>
          <leafValues>
            1.5773743391036987e-01 -3.7319272756576538e-01</leafValues></_>
        <_>
          <internalNodes>
            0 -1 303 2.4107992649078369e-02</internalNodes>
          <leafValues>
            6.9521449506282806e-02 -7.0282196998596191e-01</leafValues></_>
        <_>
          <internalNodes>
            0 -1 47 6.0737959574908018e-04</internalNodes>
          <leafValues>
            9.4055585563182831e-02 -5.1761054992675781e-01</leafValues></_>
        <_>
          <internalNodes>
            0 -1 692 -9.9697918631136417e-04</internalNodes>
          <leafValues>
            4.3863043189048767e-01 -1.3674034178256989e-01</leafValues></_>
        <_>
          <internalNodes>
            0 -1 712 1.4785388484597206e-02</internalNodes>
          <leafValues>
            1.1560107022523880e-01 -5.1258200407028198e-01</leafValues></_>
        <_>
          <internalNodes>
            0 -1 697 4.1524023981764913e-04</internalNodes>
          <leafValues>
            -1.9101220369338989e-01 3.1817209720611572e-01</leafValues></_>
        <_>
          <internalNodes>
            0 -1 886 7.9316634219139814e-04</internalNodes>
          <leafValues>
            -1.2947607040405273e-01 3.9026468992233276e-01</leafValues></_>
        <_>
          <internalNodes>
            0 -1 764 -5.3967547137290239e-04</internalNodes>
          <leafValues>
            3.2943975925445557e-01 -1.6422213613986969e-01</leafValues></_>
        <_>
          <internalNodes>
            0 -1 464 2.3398837947752327e-04</internalNodes>
          <leafValues>
            -1.8101324141025543e-01 3.2228016853332520e-01</leafValues></_>
        <_>
          <internalNodes>
            0 -1 633 1.0094894096255302e-02</internalNodes>
          <leafValues>
            7.3836609721183777e-02 -7.8695327043533325e-01</leafValues></_>
        <_>
          <internalNodes>
            0 -1 910 1.0222544660791755e-03</internalNodes>
          <leafValues>
            -1.5784187614917755e-01 4.1848692297935486e-01</leafValues></_>
        <_>
          <internalNodes>
            0 -1 428 -6.4940163865685463e-03</internalNodes>
          <leafValues>
            -8.4600591659545898e-01 6.9719485938549042e-02</leafValues></_>
        <_>
          <internalNodes>
            0 -1 491 1.0174842318519950e-03</internalNodes>
          <leafValues>
            -1.7097981274127960e-01 3.2347720861434937e-01</leafValues></_>
        <_>
          <internalNodes>
            0 -1 486 -5.9827970108017325e-04</internalNodes>
          <leafValues>
            2.4078157544136047e-01 -2.3349058628082275e-01</leafValues></_></weakClassifiers></_>
    <!-- stage 15 -->
    <_>
      <maxWeakCount>39</maxWeakCount>
      <stageThreshold>-1.0457358360290527e+00</stageThreshold>
      <weakClassifiers>
        <_>
          <internalNodes>
            0 -1 280 -1.6888042911887169e-02</internalNodes>
          <leafValues>
            -9.2592591047286987e-01 3.2097947597503662e-01</leafValues></_>
        <_>
          <internalNodes>
            0 -1 480 7.6503548771142960e-03</internalNodes>
          <leafValues>
            -1.1044022440910339e-01 4.5107251405715942e-01</leafValues></_>
        <_>
          <internalNodes>
            0 -1 357 -1.7050286754965782e-02</internalNodes>
          <leafValues>
            5.2105754613876343e-01 -9.5414951443672180e-02</leafValues></_>
        <_>
          <internalNodes>
            0 -1 589 1.7031820490956306e-02</internalNodes>
          <leafValues>
            7.8621447086334229e-02 -6.2307697534561157e-01</leafValues></_>
        <_>
          <internalNodes>
            0 -1 555 -7.5529143214225769e-04</internalNodes>
          <leafValues>
            2.8532621264457703e-01 -1.9977775216102600e-01</leafValues></_>
        <_>
          <internalNodes>
            0 -1 836 1.5610228001605719e-04</internalNodes>
          <leafValues>
            1.0011880844831467e-01 -4.1102105379104614e-01</leafValues></_>
        <_>
          <internalNodes>
            0 -1 561 -8.5042798891663551e-03</internalNodes>
          <leafValues>
            -6.2256991863250732e-01 7.7485039830207825e-02</leafValues></_>
        <_>
          <internalNodes>
            0 -1 696 2.4550557136535645e-03</internalNodes>
          <leafValues>
            -1.4813874661922455e-01 3.9692595601081848e-01</leafValues></_>
        <_>
          <internalNodes>
            0 -1 208 5.2377826068550348e-04</internalNodes>
          <leafValues>
            1.4908495545387268e-01 -3.5198768973350525e-01</leafValues></_>
        <_>
          <internalNodes>
            0 -1 907 2.3744437843561172e-02</internalNodes>
          <leafValues>
            -7.9064339399337769e-02 6.3530004024505615e-01</leafValues></_>
        <_>
          <internalNodes>
            0 -1 669 -2.1921223960816860e-03</internalNodes>
          <leafValues>
            -7.0256978273391724e-01 7.1668773889541626e-02</leafValues></_>
        <_>
          <internalNodes>
            0 -1 623 -2.4900969583541155e-03</internalNodes>
          <leafValues>
            3.8104310631752014e-01 -1.3424284756183624e-01</leafValues></_>
        <_>
          <internalNodes>
            0 -1 785 9.4214652199298143e-04</internalNodes>
          <leafValues>
            -1.2237063795328140e-01 4.5695695281028748e-01</leafValues></_>
        <_>
          <internalNodes>
            0 -1 767 8.5498654516413808e-04</internalNodes>
          <leafValues>
            -1.2622359395027161e-01 3.8637414574623108e-01</leafValues></_>
        <_>
          <internalNodes>
            0 -1 744 -2.1366598084568977e-02</internalNodes>
          <leafValues>
            -7.0478749275207520e-01 7.2077989578247070e-02</leafValues></_>
        <_>
          <internalNodes>
            0 -1 114 -2.7378231287002563e-02</internalNodes>
          <leafValues>
            2.7374351024627686e-01 -1.9106332957744598e-01</leafValues></_>
        <_>
          <internalNodes>
            0 -1 170 -1.7157849669456482e-01</internalNodes>
          <leafValues>
            7.3603922128677368e-01 -6.2396064400672913e-02</leafValues></_>
        <_>
          <internalNodes>
            0 -1 731 6.5126467961817980e-04</internalNodes>
          <leafValues>
            -1.2384533137083054e-01 4.0333154797554016e-01</leafValues></_>
        <_>
          <internalNodes>
            0 -1 287 9.3872584402561188e-03</internalNodes>
          <leafValues>
            -9.4081431627273560e-02 5.4789662361145020e-01</leafValues></_>
        <_>
          <internalNodes>
            0 -1 936 1.5823859721422195e-02</internalNodes>
          <leafValues>
            -1.1338927596807480e-01 4.4131001830101013e-01</leafValues></_>
        <_>
          <internalNodes>
            0 -1 521 4.7892276197671890e-03</internalNodes>
          <leafValues>
            7.2984993457794189e-02 -7.6857811212539673e-01</leafValues></_>
        <_>
          <internalNodes>
            0 -1 304 3.4216819331049919e-03</internalNodes>
          <leafValues>
            -1.1358933895826340e-01 5.2055507898330688e-01</leafValues></_>
        <_>
          <internalNodes>
            0 -1 899 1.0385557077825069e-02</internalNodes>
          <leafValues>
            -1.0400841385126114e-01 4.7710549831390381e-01</leafValues></_>
        <_>
          <internalNodes>
            0 -1 887 2.5845065829344094e-04</internalNodes>
          <leafValues>
            -1.5295508503913879e-01 3.4044015407562256e-01</leafValues></_>
        <_>
          <internalNodes>
            0 -1 374 1.2564456555992365e-03</internalNodes>
          <leafValues>
            -1.6890694200992584e-01 2.9923143982887268e-01</leafValues></_>
        <_>
          <internalNodes>
            0 -1 536 9.9053476005792618e-03</internalNodes>
          <leafValues>
            -7.2637632489204407e-02 7.3692953586578369e-01</leafValues></_>
        <_>
          <internalNodes>
            0 -1 325 -2.1636623889207840e-02</internalNodes>
          <leafValues>
            4.9215659499168396e-01 -1.0002020746469498e-01</leafValues></_>
        <_>
          <internalNodes>
            0 -1 816 -3.2710954546928406e-03</internalNodes>
          <leafValues>
            3.1487721204757690e-01 -1.8192788958549500e-01</leafValues></_>
        <_>
          <internalNodes>
            0 -1 670 4.4253247324377298e-04</internalNodes>
          <leafValues>
            -1.5974862873554230e-01 3.4700575470924377e-01</leafValues></_>
        <_>
          <internalNodes>
            0 -1 614 -1.7399115022271872e-03</internalNodes>
          <leafValues>
            3.4858992695808411e-01 -1.9020724296569824e-01</leafValues></_>
        <_>
          <internalNodes>
            0 -1 676 2.2961248760111630e-04</internalNodes>
          <leafValues>
            1.2558503448963165e-01 -5.0048148632049561e-01</leafValues></_>
        <_>
          <internalNodes>
            0 -1 403 -6.0566961765289307e-03</internalNodes>
          <leafValues>
            -8.5237175226211548e-01 5.2673544734716415e-02</leafValues></_>
        <_>
          <internalNodes>
            0 -1 593 -5.4644269403070211e-04</internalNodes>
          <leafValues>
            3.6642614006996155e-01 -1.5650101006031036e-01</leafValues></_>
        <_>
          <internalNodes>
            0 -1 81 6.2462827190756798e-04</internalNodes>
          <leafValues>
            1.1127666383981705e-01 -5.0513130426406860e-01</leafValues></_>
        <_>
          <internalNodes>
            0 -1 302 9.0256566181778908e-04</internalNodes>
          <leafValues>
            -1.0952802002429962e-01 4.8391357064247131e-01</leafValues></_>
        <_>
          <internalNodes>
            0 -1 176 -4.5651674270629883e-02</internalNodes>
          <leafValues>
            5.8463698625564575e-01 -8.7156645953655243e-02</leafValues></_>
        <_>
          <internalNodes>
            0 -1 704 4.6158727491274476e-04</internalNodes>
          <leafValues>
            -2.0042498409748077e-01 2.8191125392913818e-01</leafValues></_>
        <_>
          <internalNodes>
            0 -1 526 2.1836715750396252e-03</internalNodes>
          <leafValues>
            8.7205022573471069e-02 -6.8437373638153076e-01</leafValues></_>
        <_>
          <internalNodes>
            0 -1 361 -3.5982467234134674e-03</internalNodes>
          <leafValues>
            3.8575160503387451e-01 -1.5536929666996002e-01</leafValues></_></weakClassifiers></_>
    <!-- stage 16 -->
    <_>
      <maxWeakCount>34</maxWeakCount>
      <stageThreshold>-7.3548132181167603e-01</stageThreshold>
      <weakClassifiers>
        <_>
          <internalNodes>
            0 -1 760 -1.8495380878448486e-02</internalNodes>
          <leafValues>
            -2.6515150070190430e-01 3.8816294074058533e-01</leafValues></_>
        <_>
          <internalNodes>
            0 -1 637 -4.3830554932355881e-03</internalNodes>
          <leafValues>
            -8.5386127233505249e-01 7.5943775475025177e-02</leafValues></_>
        <_>
          <internalNodes>
            0 -1 33 -6.4246701076626778e-03</internalNodes>
          <leafValues>
            2.6823070645332336e-01 -1.8908493220806122e-01</leafValues></_>
        <_>
          <internalNodes>
            0 -1 120 4.2554653191473335e-05</internalNodes>
          <leafValues>
            1.2483656406402588e-01 -3.5199487209320068e-01</leafValues></_>
        <_>
          <internalNodes>
            0 -1 569 2.4399015819653869e-04</internalNodes>
          <leafValues>
            1.1022980511188507e-01 -4.4469892978668213e-01</leafValues></_>
        <_>
          <internalNodes>
            0 -1 410 -5.1211928948760033e-03</internalNodes>
          <leafValues>
            -5.2642208337783813e-01 8.0812133848667145e-02</leafValues></_>
        <_>
          <internalNodes>
            0 -1 84 -2.2664973512291908e-02</internalNodes>
          <leafValues>
            4.9062365293502808e-01 -9.9926486611366272e-02</leafValues></_>
        <_>
          <internalNodes>
            0 -1 55 4.9940831959247589e-03</internalNodes>
          <leafValues>
            -1.3554228842258453e-01 4.9474442005157471e-01</leafValues></_>
        <_>
          <internalNodes>
            0 -1 122 1.1771108210086823e-01</internalNodes>
          <leafValues>
            9.9225573241710663e-02 -5.2488416433334351e-01</leafValues></_>
        <_>
          <internalNodes>
            0 -1 107 1.4303202624432743e-04</internalNodes>
          <leafValues>
            1.3541895151138306e-01 -3.1904765963554382e-01</leafValues></_>
        <_>
          <internalNodes>
            0 -1 220 -9.6550822490826249e-05</internalNodes>
          <leafValues>
            -5.1017534732818604e-01 9.3445815145969391e-02</leafValues></_>
        <_>
          <internalNodes>
            0 -1 397 2.4579558521509171e-03</internalNodes>
          <leafValues>
            -1.0878097265958786e-01 4.5200034976005554e-01</leafValues></_>
        <_>
          <internalNodes>
            0 -1 235 1.4161779545247555e-02</internalNodes>
          <leafValues>
            1.1503661423921585e-01 -4.9745470285415649e-01</leafValues></_>
        <_>
          <internalNodes>
            0 -1 447 -2.6786345988512039e-02</internalNodes>
          <leafValues>
            7.2812891006469727e-01 -6.4292490482330322e-02</leafValues></_>
        <_>
          <internalNodes>
            0 -1 470 9.7037144005298615e-03</internalNodes>
          <leafValues>
            -1.2549497187137604e-01 4.2302408814430237e-01</leafValues></_>
        <_>
          <internalNodes>
            0 -1 540 -5.4979382548481226e-04</internalNodes>
          <leafValues>
            3.0773392319679260e-01 -1.8803542852401733e-01</leafValues></_>
        <_>
          <internalNodes>
            0 -1 935 5.7780854403972626e-03</internalNodes>
          <leafValues>
            1.1732221394777298e-01 -4.4895544648170471e-01</leafValues></_>
        <_>
          <internalNodes>
            0 -1 726 5.4605526383966208e-04</internalNodes>
          <leafValues>
            -1.2750916182994843e-01 4.3143916130065918e-01</leafValues></_>
        <_>
          <internalNodes>
            0 -1 244 1.8553871195763350e-03</internalNodes>
          <leafValues>
            -1.4669400453567505e-01 3.1985205411911011e-01</leafValues></_>
        <_>
          <internalNodes>
            0 -1 965 -1.7732518026605248e-03</internalNodes>
          <leafValues>
            -6.2106209993362427e-01 8.3416558802127838e-02</leafValues></_>
        <_>
          <internalNodes>
            0 -1 205 -1.4047323726117611e-02</internalNodes>
          <leafValues>
            -6.8494123220443726e-01 6.1949893832206726e-02</leafValues></_>
        <_>
          <internalNodes>
            0 -1 867 3.7874991539865732e-04</internalNodes>
          <leafValues>
            -1.4260572195053101e-01 4.0334728360176086e-01</leafValues></_>
        <_>
          <internalNodes>
            0 -1 664 -3.8248072378337383e-03</internalNodes>
          <leafValues>
            -7.1668094396591187e-01 8.2451917231082916e-02</leafValues></_>
        <_>
          <internalNodes>
            0 -1 848 6.1230396386235952e-04</internalNodes>
          <leafValues>
            -1.2882632017135620e-01 4.2869690060615540e-01</leafValues></_>
        <_>
          <internalNodes>
            0 -1 525 6.2253861688077450e-04</internalNodes>
          <leafValues>
            -1.3759545981884003e-01 3.7536209821701050e-01</leafValues></_>
        <_>
          <internalNodes>
            0 -1 699 -9.7552256193011999e-04</internalNodes>
          <leafValues>
            2.9012560844421387e-01 -1.8760648369789124e-01</leafValues></_>
        <_>
          <internalNodes>
            0 -1 808 2.4315672926604748e-03</internalNodes>
          <leafValues>
            -1.4104473590850830e-01 3.6339670419692993e-01</leafValues></_>
        <_>
          <internalNodes>
            0 -1 678 -3.0601434409618378e-03</internalNodes>
          <leafValues>
            -6.6453737020492554e-01 8.9647211134433746e-02</leafValues></_>
        <_>
          <internalNodes>
            0 -1 527 -2.4858411052264273e-04</internalNodes>
          <leafValues>
            -5.3041630983352661e-01 8.0110922455787659e-02</leafValues></_>
        <_>
          <internalNodes>
            0 -1 380 -5.8892939705401659e-04</internalNodes>
          <leafValues>
            3.3826032280921936e-01 -1.4796264469623566e-01</leafValues></_>
        <_>
          <internalNodes>
            0 -1 430 5.2125584334135056e-03</internalNodes>
          <leafValues>
            -1.5559417009353638e-01 3.0575394630432129e-01</leafValues></_>
        <_>
          <internalNodes>
            0 -1 736 1.3790382072329521e-03</internalNodes>
          <leafValues>
            6.8658865988254547e-02 -6.9429564476013184e-01</leafValues></_>
        <_>
          <internalNodes>
            0 -1 912 1.3579561709775589e-05</internalNodes>
          <leafValues>
            -2.2035957872867584e-01 2.3471021652221680e-01</leafValues></_>
        <_>
          <internalNodes>
            0 -1 221 1.2807061895728111e-02</internalNodes>
          <leafValues>
            -1.0800329595804214e-01 4.4054889678955078e-01</leafValues></_></weakClassifiers></_>
    <!-- stage 17 -->
    <_>
      <maxWeakCount>35</maxWeakCount>
      <stageThreshold>-7.8012013435363770e-01</stageThreshold>
      <weakClassifiers>
        <_>
          <internalNodes>
            0 -1 463 -8.4987292066216469e-03</internalNodes>
          <leafValues>
            -6.6666668653488159e-01 3.2750505208969116e-01</leafValues></_>
        <_>
          <internalNodes>
            0 -1 552 1.4235457638278604e-03</internalNodes>
          <leafValues>
            -1.8657830357551575e-01 2.8377622365951538e-01</leafValues></_>
        <_>
          <internalNodes>
            0 -1 757 -5.1606604829430580e-03</internalNodes>
          <leafValues>
            3.4428453445434570e-01 -1.5996363759040833e-01</leafValues></_>
        <_>
          <internalNodes>
            0 -1 265 -1.4920651447027922e-03</internalNodes>
          <leafValues>
            -4.1448080539703369e-01 1.2694142758846283e-01</leafValues></_>
        <_>
          <internalNodes>
            0 -1 821 -7.8942086547613144e-03</internalNodes>
          <leafValues>
            -5.5688625574111938e-01 7.7476106584072113e-02</leafValues></_>
        <_>
          <internalNodes>
            0 -1 327 -1.7486535944044590e-03</internalNodes>
          <leafValues>
            2.7554887533187866e-01 -1.9808764755725861e-01</leafValues></_>
        <_>
          <internalNodes>
            0 -1 96 6.2334910035133362e-04</internalNodes>
          <leafValues>
            1.3536392152309418e-01 -4.3574270606040955e-01</leafValues></_>
        <_>
          <internalNodes>
            0 -1 901 -4.7845290973782539e-03</internalNodes>
          <leafValues>
            3.8568440079689026e-01 -1.2454545497894287e-01</leafValues></_>
        <_>
          <internalNodes>
            0 -1 184 5.0282939337193966e-03</internalNodes>
          <leafValues>
            -1.0125387459993362e-01 5.4416233301162720e-01</leafValues></_>
        <_>
          <internalNodes>
            0 -1 196 -7.3818978853523731e-03</internalNodes>
          <leafValues>
            -4.4242703914642334e-01 1.0876084864139557e-01</leafValues></_>
        <_>
          <internalNodes>
            0 -1 218 -2.3085093125700951e-03</internalNodes>
          <leafValues>
            3.0661782622337341e-01 -1.6342979669570923e-01</leafValues></_>
        <_>
          <internalNodes>
            0 -1 94 -6.6869258880615234e-02</internalNodes>
          <leafValues>
            6.8954437971115112e-01 -7.0835009217262268e-02</leafValues></_>
        <_>
          <internalNodes>
            0 -1 630 -1.7113415524363518e-03</internalNodes>
          <leafValues>
            4.3722707033157349e-01 -9.1042481362819672e-02</leafValues></_>
        <_>
          <internalNodes>
            0 -1 90 -1.7308909446001053e-04</internalNodes>
          <leafValues>
            -3.1953483819961548e-01 1.4535048604011536e-01</leafValues></_>
        <_>
          <internalNodes>
            0 -1 652 -2.3462597164325416e-04</internalNodes>
          <leafValues>
            -3.7404745817184448e-01 1.2425512820482254e-01</leafValues></_>
        <_>
          <internalNodes>
            0 -1 508 -2.1690418943762779e-03</internalNodes>
          <leafValues>
            4.4901290535926819e-01 -1.1355672776699066e-01</leafValues></_>
        <_>
          <internalNodes>
            0 -1 580 5.0739519298076630e-02</internalNodes>
          <leafValues>
            6.7849606275558472e-02 -8.0156505107879639e-01</leafValues></_>
        <_>
          <internalNodes>
            0 -1 87 7.8174754977226257e-02</internalNodes>
          <leafValues>
            7.5303353369235992e-02 -5.5134791135787964e-01</leafValues></_>
        <_>
          <internalNodes>
            0 -1 559 -1.0889528784900904e-03</internalNodes>
          <leafValues>
            -5.1938384771347046e-01 9.0552307665348053e-02</leafValues></_>
        <_>
          <internalNodes>
            0 -1 888 1.5394488582387567e-04</internalNodes>
          <leafValues>
            -1.7546314001083374e-01 3.0108866095542908e-01</leafValues></_>
        <_>
          <internalNodes>
            0 -1 172 -1.6207902226597071e-03</internalNodes>
          <leafValues>
            -5.4818642139434814e-01 9.1345623135566711e-02</leafValues></_>
        <_>
          <internalNodes>
            0 -1 46 -2.9974976554512978e-02</internalNodes>
          <leafValues>
            4.1547700762748718e-01 -1.2699979543685913e-01</leafValues></_>
        <_>
          <internalNodes>
            0 -1 564 -2.0255562849342823e-03</internalNodes>
          <leafValues>
            4.5561084151268005e-01 -1.1214239150285721e-01</leafValues></_>
        <_>
          <internalNodes>
            0 -1 41 -3.4345895983278751e-03</internalNodes>
          <leafValues>
            -6.9733488559722900e-01 7.0170432329177856e-02</leafValues></_>
        <_>
          <internalNodes>
            0 -1 202 -1.2465621111914515e-03</internalNodes>
          <leafValues>
            3.1273335218429565e-01 -1.5836100280284882e-01</leafValues></_>
        <_>
          <internalNodes>
            0 -1 14 -5.5837547406554222e-03</internalNodes>
          <leafValues>
            2.9915577173233032e-01 -1.7737965285778046e-01</leafValues></_>
        <_>
          <internalNodes>
            0 -1 822 1.4722079969942570e-02</internalNodes>
          <leafValues>
            1.2122101336717606e-01 -4.4031706452369690e-01</leafValues></_>
        <_>
          <internalNodes>
            0 -1 264 3.1546084210276604e-03</internalNodes>
          <leafValues>
            -1.3207212090492249e-01 3.9194375276565552e-01</leafValues></_>
        <_>
          <internalNodes>
            0 -1 755 2.8987578116357327e-03</internalNodes>
          <leafValues>
            8.3438657224178314e-02 -5.8724540472030640e-01</leafValues></_>
        <_>
          <internalNodes>
            0 -1 372 2.6614228263497353e-03</internalNodes>
          <leafValues>
            -1.4530296623706818e-01 3.8046705722808838e-01</leafValues></_>
        <_>
          <internalNodes>
            0 -1 108 -1.6260612010955811e-01</internalNodes>
          <leafValues>
